tree
version=v4
num_class=3
num_tree_per_iteration=3
label_index=0
max_feature_idx=8
objective=multiclass num_class:3
feature_names=culmen_length_mm culmen_depth_mm flipper_length_mm body_mass_g island_Torgersen island_Biscoe island_Dream sex_MALE sex_FEMALE
feature_infos=[-1.7742733955383301:3.1099181175231934] [-2.4091176986694336:2.6371698379516602] [-2.7512776851654053:2.937246561050415] [-2.2746286392211914:2.460545539855957] [0:1] [0:1] [0:1] [0:1] [0:1]
tree_sizes=770 759 242 775 780 224 673 676 224 673 677 225 882 886 225 881 886 225 988 1105 225 1092 1101 225 1092 1099 225 989 1104 225 985 992 225 986 996 225 995 995 225 987 993 225 988 989 225 1099 995 225 1200 990 225 1187 1198 225 1201 1212 225 1196 1210 225 995 1095 225 1200 993 225 1206 1215 225 1199 1216 225 1202 1214 225 992 997 225 1094 993 225 1198 1218 225 1206 994 225 1198 1210 225 1194 1215 225 1204 1215 225 997 998 225 1211 1223 226 1212 1223 226 1100 1218 226 1204 1214 226 1203 1222 226 1201 1210 226 1203 1004 226 1106 1220 226 1214 1224 226 1215 1099 226 1212 1229 226 1315 1104 226 1313 1324 226 1106 1115 226 1211 1228 226 997 1004 226 1201 1216 226 1095 1102 226 995 1113 226 1100 1109 226 1102 1223 226 1216 1012 226 1112 1113 226 1002 1009 226 1318 1222 226 1004 1009 226 1213 1214 226 1219 1229 226 1222 1012 226 1218 1224 226 1110 1117 226 1106 1114 226 1005 1326 226 1325 1008 226 1005 1010 226 1113 1009 226 1222 1229 226 1006 1011 226 1116 1121 226 1222 1227 226 1224 1229 226 1114 1121 226 1009 1016 226 1117 1119 226 1118 1123 226 1012 1017 226 1007 1121 226 1013 1020 226 1120 1125 226 1224 1124 226 1223 1228 226 1224 1229 226 1015 1020 226 1122 1129 226 1011 1021 226 1125 1132 226 1017 1022 226 1120 1030 226 1334 1442 226 1125 1133 226 1121 1235 226 1120 1134 226 1015 1022 226 1017 1352 226 1019 1028 226 1128 1135 226 1349 1128 226

Tree=0
num_leaves=6
num_cat=0
split_feature=0 0 3 0 0
split_gain=109.533 3.08901 0.949411 0.143946 3.55271e-15
threshold=0.71496745944023143 1.0000000180025095e-35 0.40299956500530248 -0.16192431747913358 -1.0199577808380125
decision_type=2 2 2 2 2
left_child=1 3 -2 4 -1
right_child=2 -3 -4 -5 -6
leaf_value=-0.26804351969251666 -0.43746708506895388 -0.30654887545988879 -0.4120535502624883 -0.27651469796133854 -0.26804351969251672
leaf_weight=7.6730766296386674 9.7389049530029279 6.4926033020019522 5.9023666381835929 5.9023666381835929 25.675294876098636
leaf_count=26 33 22 20 20 87
internal_value=-0.313658 -0.274602 -0.427877 -0.269317 -0.268044
internal_weight=61.3846 45.7433 15.6413 39.2507 33.3484
internal_count=208 155 53 133 113
is_linear=0
shrinkage=1


Tree=1
num_leaves=6
num_cat=0
split_feature=0 0 3 0 0
split_gain=109.533 3.08901 0.949411 0.143946 3.55271e-15
threshold=0.71496745944023143 1.0000000180025095e-35 0.40299956500530248 -0.16192431747913358 -1.0199577808380125
decision_type=2 2 2 2 2
left_child=1 3 -2 4 -1
right_child=2 -3 -4 -5 -6
leaf_value=-1.3578004281286937 -1.1883768627522564 -1.3192950723613215 -1.2137903975587221 -1.3493292498598717 -1.3578004281286937
leaf_weight=7.6730766296386674 9.7389049530029279 6.4926033020019522 5.9023666381835929 5.9023666381835929 25.675294876098636
leaf_count=26 33 22 20 20 87
internal_value=-1.31219 -1.35124 -1.19797 -1.35653 -1.3578
internal_weight=61.3846 45.7433 15.6413 39.2507 33.3484
internal_count=208 155 53 133 113
is_linear=0
shrinkage=1


Tree=2
num_leaves=1
num_cat=0
split_feature=
split_gain=
threshold=
decision_type=
left_child=
right_child=
leaf_value=-34.538776391283193
leaf_weight=
leaf_count=208
internal_value=
internal_weight=
internal_count=
is_linear=0
shrinkage=1


Tree=3
num_leaves=6
num_cat=0
split_feature=0 0 0 0 0
split_gain=89.512 2.94421 0.85639 0.142509 3.55271e-15
threshold=0.71496745944023143 1.0000000180025095e-35 1.3655641674995425 -0.16192431747913358 -0.50136603415012349
decision_type=2 2 2 2 2
left_child=1 3 -2 4 -1
right_child=2 -3 -4 -5 -6
leaf_value=0.044543271903703822 -0.082869987782729027 0.0066802798275060376 -0.10567329964520421 0.035958746264059732 0.044543271903703802
leaf_weight=21.752029478549957 6.8310374617576626 6.4498836994171134 10.364299982786177 5.697312355041503 10.169780015945436
leaf_count=77 21 22 32 20 36
internal_value=0.000139385 0.0378919 -0.0966144 0.0432432 0.0445433
internal_weight=61.2643 44.069 17.1953 37.6191 31.9218
internal_count=208 155 53 133 113
is_linear=0
shrinkage=0.05


Tree=4
num_leaves=6
num_cat=0
split_feature=0 0 0 0 0
split_gain=89.512 2.94421 0.85639 0.142509 3.55271e-15
threshold=0.71496745944023143 1.0000000180025095e-35 1.3655641674995425 -0.16192431747913358 -0.50136603415012349
decision_type=2 2 2 2 2
left_child=1 3 -2 4 -1
right_child=2 -3 -4 -5 -6
leaf_value=-0.044543271903703822 0.082869987782729027 -0.0066802798275060376 0.10567329964520421 -0.035958746264059732 -0.044543271903703802
leaf_weight=21.752029478549957 6.8310374617576626 6.4498836994171134 10.364299982786177 5.697312355041503 10.169780015945436
leaf_count=77 21 22 32 20 36
internal_value=-0.000139385 -0.0378919 0.0966144 -0.0432432 -0.0445433
internal_weight=61.2643 44.069 17.1953 37.6191 31.9218
internal_count=208 155 53 133 113
is_linear=0
shrinkage=0.05


Tree=5
num_leaves=1
num_cat=0
split_feature=
split_gain=
threshold=
decision_type=
left_child=
right_child=
leaf_value=0
leaf_weight=
leaf_count=208
internal_value=
internal_weight=
internal_count=
is_linear=0
shrinkage=1


Tree=6
num_leaves=5
num_cat=0
split_feature=0 0 3 0
split_gain=75.2635 2.81685 0.650852 0.142387
threshold=0.71496745944023143 1.0000000180025095e-35 0.40299956500530248 -0.16192431747913358
decision_type=2 2 2 2
left_child=1 3 -2 -1
right_child=2 -3 -4 -5
leaf_value=0.043587809252250892 -0.091793803236902144 0.0062755807208630032 -0.072316751097805387 0.034843790493040823
leaf_weight=30.4952272772789 11.446949362754824 6.4095323085784903 6.8594481050968161 5.4945975542068473
leaf_count=113 33 22 20 20
internal_value=0.000232009 0.0368141 -0.0844957 0.0422529
internal_weight=60.7058 42.3994 18.3064 35.9898
internal_count=208 155 53 133
is_linear=0
shrinkage=0.05


Tree=7
num_leaves=5
num_cat=0
split_feature=0 0 3 0
split_gain=75.2635 2.81685 0.650852 0.142387
threshold=0.71496745944023143 1.0000000180025095e-35 0.40299956500530248 -0.16192431747913358
decision_type=2 2 2 2
left_child=1 3 -2 -1
right_child=2 -3 -4 -5
leaf_value=-0.043587809252250892 0.091793803236902144 -0.0062755807208630032 0.072316751097805387 -0.034843790493040823
leaf_weight=30.4952272772789 11.446949362754824 6.4095323085784903 6.8594481050968161 5.4945975542068473
leaf_count=113 33 22 20 20
internal_value=-0.000232009 -0.0368141 0.0844957 -0.0422529
internal_weight=60.7058 42.3994 18.3064 35.9898
internal_count=208 155 53 133
is_linear=0
shrinkage=0.05


Tree=8
num_leaves=1
num_cat=0
split_feature=
split_gain=
threshold=
decision_type=
left_child=
right_child=
leaf_value=0
leaf_weight=
leaf_count=208
internal_value=
internal_weight=
internal_count=
is_linear=0
shrinkage=1


Tree=9
num_leaves=5
num_cat=0
split_feature=0 0 0 0
split_gain=64.4966 2.70359 0.635613 0.143354
threshold=0.71496745944023143 1.0000000180025095e-35 1.3655641674995425 -0.16192431747913358
decision_type=2 2 2 2
left_child=1 3 -2 -1
right_child=2 -3 -4 -5
leaf_value=0.042731727272253522 -0.064318348572653186 0.0058934667349578211 -0.082994629420837476 0.033787375108646447
leaf_weight=29.080455452203751 7.5306828618049648 6.3714534044265738 11.531811058521269 5.295468568801879
leaf_count=113 21 22 32 20
internal_value=0.000295746 0.0358091 -0.0756165 0.0413539
internal_weight=59.8099 40.7474 19.0625 34.3759
internal_count=208 155 53 133
is_linear=0
shrinkage=0.05


Tree=10
num_leaves=5
num_cat=0
split_feature=0 0 0 0
split_gain=64.4966 2.70359 0.635613 0.143354
threshold=0.71496745944023143 1.0000000180025095e-35 1.3655641674995425 -0.16192431747913358
decision_type=2 2 2 2
left_child=1 3 -2 -1
right_child=2 -3 -4 -5
leaf_value=-0.042731727272253522 0.064318348572653186 -0.0058934667349578211 0.082994629420837476 -0.033787375108646447
leaf_weight=29.080455452203751 7.5306828618049648 6.3714534044265738 11.531811058521269 5.295468568801879
leaf_count=113 21 22 32 20
internal_value=-0.000295746 -0.0358091 0.0756165 -0.0413539
internal_weight=59.8099 40.7474 19.0625 34.3759
internal_count=208 155 53 133
is_linear=0
shrinkage=0.05


Tree=11
num_leaves=1
num_cat=0
split_feature=
split_gain=
threshold=
decision_type=
left_child=
right_child=
leaf_value=0
leaf_weight=
leaf_count=208
internal_value=
internal_weight=
internal_count=
is_linear=0
shrinkage=1


Tree=12
num_leaves=7
num_cat=0
split_feature=0 3 8 1 0 0
split_gain=56.0087 6.95009 0.584054 0.155173 0.00390485 1.44775e-05
threshold=0.13980185985565188 0.79759743809700023 1.0000000180025095e-35 -1.1054932475090025 -0.10535045713186263 -0.35050311684608454
decision_type=2 2 2 2 2 2
left_child=3 2 -2 -1 5 -5
right_child=1 -3 -4 4 -6 -7
leaf_value=0.033220368671782637 -0.065929098701433542 -0.01706270687563665 -0.08466080424520922 0.041961872216307795 0.043452401024228059 0.042058228664032409
leaf_weight=5.6654921472072592 7.6102379858493849 7.0653705894947043 9.1825324594974518 18.621351420879368 5.586493223905566 4.9304388016462317
leaf_count=23 21 21 26 76 21 20
internal_value=0.000341235 -0.0586672 -0.0761719 0.0407918 0.0422639 0.041982
internal_weight=58.6619 23.8581 16.7928 34.8038 29.1383 23.5518
internal_count=208 68 47 140 117 96
is_linear=0
shrinkage=0.05


Tree=13
num_leaves=7
num_cat=0
split_feature=0 3 7 1 0 0
split_gain=56.0087 6.95009 0.584054 0.155173 0.00390485 1.44775e-05
threshold=0.13980185985565188 0.79759743809700023 1.0000000180025095e-35 -1.1054932475090025 -0.10535045713186263 -0.35050311684608454
decision_type=2 2 2 2 2 2
left_child=3 2 -2 -1 5 -5
right_child=1 -3 -4 4 -6 -7
leaf_value=-0.033220368671782637 0.084660804245209165 0.01706270687563665 0.065929098701433583 -0.041961872216307795 -0.043452401024228059 -0.042058228664032409
leaf_weight=5.6654921472072592 9.1825324594974571 7.0653705894947043 7.6102379858493796 18.621351420879368 5.586493223905566 4.9304388016462317
leaf_count=23 26 21 21 76 21 20
internal_value=-0.000341235 0.0586672 0.0761719 -0.0407918 -0.0422639 -0.041982
internal_weight=58.6619 23.8581 16.7928 34.8038 29.1383 23.5518
internal_count=208 68 47 140 117 96
is_linear=0
shrinkage=0.05


Tree=14
num_leaves=1
num_cat=0
split_feature=
split_gain=
threshold=
decision_type=
left_child=
right_child=
leaf_value=0
leaf_weight=
leaf_count=208
internal_value=
internal_weight=
internal_count=
is_linear=0
shrinkage=1


Tree=15
num_leaves=7
num_cat=0
split_feature=0 0 0 1 0 0
split_gain=49.8735 3.07217 0.613549 0.152005 0.00173685 2.18273e-09
threshold=0.71496745944023143 0.10208595171570779 1.3655641674995425 -1.1054932475090025 -0.16192431747913358 -0.36936107277870173
decision_type=2 2 2 2 2 2
left_child=1 3 -2 -1 5 -5
right_child=2 -3 -4 4 -6 -7
leaf_value=0.032303705642321989 -0.053087251309274178 -0.0010348942908173177 -0.071109865934775029 0.041267288129358905 0.042282469456854321 0.041266107094841221
leaf_weight=5.4453909546136847 7.8148075640201595 5.333932399749755 11.933335363864897 16.538884118199352 5.2269233912229565 5.1242550015449515
leaf_count=23 21 18 32 71 21 22
internal_value=0.000381798 0.0341223 -0.0639779 0.0399217 0.0414644 0.041267
internal_weight=57.4175 37.6694 19.7481 32.3355 26.8901 21.6631
internal_count=208 155 53 137 114 93
is_linear=0
shrinkage=0.05


Tree=16
num_leaves=7
num_cat=0
split_feature=0 0 0 1 0 0
split_gain=49.8735 3.07217 0.613549 0.152005 0.00173685 2.18273e-09
threshold=0.71496745944023143 0.10208595171570779 1.3655641674995425 -1.1054932475090025 -0.16192431747913358 -0.36936107277870173
decision_type=2 2 2 2 2 2
left_child=1 3 -2 -1 5 -5
right_child=2 -3 -4 4 -6 -7
leaf_value=-0.032303705642321989 0.053087251309274178 0.0010348942908173177 0.071109865934775029 -0.041267288129358905 -0.042282469456854321 -0.041266107094841221
leaf_weight=5.4453909546136847 7.8148075640201595 5.333932399749755 11.933335363864897 16.538884118199352 5.2269233912229565 5.1242550015449515
leaf_count=23 21 18 32 71 21 22
internal_value=-0.000381798 -0.0341223 0.0639779 -0.0399217 -0.0414644 -0.041267
internal_weight=57.4175 37.6694 19.7481 32.3355 26.8901 21.6631
internal_count=208 155 53 137 114 93
is_linear=0
shrinkage=0.05


Tree=17
num_leaves=1
num_cat=0
split_feature=
split_gain=
threshold=
decision_type=
left_child=
right_child=
leaf_value=0
leaf_weight=
leaf_count=208
internal_value=
internal_weight=
internal_count=
is_linear=0
shrinkage=1


Tree=18
num_leaves=8
num_cat=0
split_feature=0 0 1 2 0 0 0
split_gain=44.0476 5.35317 0.157578 0.0037443 0.00305951 8.53631e-06 1.42109e-14
threshold=0.13980185985565188 0.87525916099548351 -1.1054932475090025 0.73294347524642955 -0.10535045713186263 -0.35050311684608454 -0.53908193111419667
decision_type=2 2 2 2 2 2 2
left_child=2 -2 -1 -3 5 6 -4
right_child=1 3 4 -5 -6 -7 -8
leaf_value=0.031420276760268394 -0.016212138841167678 -0.065557103843001202 0.040638758187244606 -0.067066182559915533 0.042017845027289225 0.040716626744293098 0.040638761641046267
leaf_weight=5.2325659990310696 7.8673391044139889 7.8657578527927425 12.164584025740632 8.6095272898673993 5.1079833209514574 4.4517682790756252 4.6446610689163199
leaf_count=23 24 21 55 23 21 20 21
internal_value=0.000407409 -0.0501429 0.0393462 -0.0663457 0.0409191 0.0406551 0.0406388
internal_weight=55.9442 24.3426 31.6016 16.4753 26.369 21.261 16.8092
internal_count=208 68 140 44 117 96 76
is_linear=0
shrinkage=0.05


Tree=19
num_leaves=9
num_cat=0
split_feature=0 3 8 3 0 0 7 3
split_gain=44.0476 5.72757 0.519406 0.144947 0.00292867 2.77934e-05 3.68318e-06 1.07986e-06
threshold=0.13980185985565188 0.79759743809700023 1.0000000180025095e-35 -1.0908351540565489 -0.10535045713186263 -0.35050311684608454 1.0000000180025095e-35 -0.55530950427055348
decision_type=2 2 2 2 2 2 2 2
left_child=3 2 -2 -1 5 6 7 -5
right_child=1 -3 -4 4 -6 -7 -8 -9
leaf_value=-0.032226630908218944 0.056240645693607365 0.012687559440336961 0.073728312403023716 -0.040705704593699335 -0.042059997058949763 -0.040806226151233228 -0.040638759187656415 -0.040672328102441174
leaf_weight=5.8299795836210277 7.7291069030761763 7.1913551390171042 9.4221622049808502 4.4486412405967801 4.8776275664567903 4.7079833894968059 6.4140540808439246 5.3232768326997757
leaf_count=26 21 21 26 20 20 21 29 24
internal_value=-0.000407409 0.0501429 0.0658476 -0.0393462 -0.0409568 -0.0406993 -0.0406682 -0.0406875
internal_weight=55.9442 24.3426 17.1513 31.6016 25.7716 20.894 16.186 9.77192
internal_count=208 68 47 140 114 94 73 44
is_linear=0
shrinkage=0.05


Tree=20
num_leaves=1
num_cat=0
split_feature=
split_gain=
threshold=
decision_type=
left_child=
right_child=
leaf_value=0
leaf_weight=
leaf_count=208
internal_value=
internal_weight=
internal_count=
is_linear=0
shrinkage=1


Tree=21
num_leaves=9
num_cat=0
split_feature=0 0 0 1 0 0 3 8
split_gain=39.4976 3.36701 0.535557 0.161449 0.00238354 6.15e-06 1.13647e-06 8.68932e-11
threshold=0.71496745944023143 0.13980185985565188 1.3655641674995425 -1.1054932475090025 -0.10535045713186263 -0.35050311684608454 -0.66805174946784962 1.0000000180025095e-35
decision_type=2 2 2 2 2 2 2 2
left_child=1 3 -2 -1 5 6 -5 -8
right_child=2 -3 -4 4 -6 -7 7 -9
leaf_value=0.030498644616936379 -0.045857595412535021 -0.007171223565093629 -0.062687108017082382 0.040098169822747769 0.041324512195598184 0.040144450516379493 0.040068481444916072 0.040068206952590307
leaf_weight=5.0116252452135113 7.8372254669666317 4.6170158684253684 11.912410438060759 4.4176581054925981 4.8575506657361975 4.2246585488319388 5.8731269836425763 5.6632185727357864
leaf_count=23 21 15 32 21 21 20 28 27
internal_value=0.000428233 0.0325821 -0.0560087 0.0386904 0.0403302 0.0400908 0.0400766 0.0400683
internal_weight=54.4145 34.6649 19.7496 30.0478 25.0362 20.1787 15.954 11.5363
internal_count=208 155 53 140 117 96 76 55
is_linear=0
shrinkage=0.05


Tree=22
num_leaves=9
num_cat=0
split_feature=0 0 0 1 0 0 3 7
split_gain=39.4976 3.36701 0.535557 0.161449 0.00238354 6.15e-06 1.13647e-06 8.68932e-11
threshold=0.71496745944023143 0.13980185985565188 1.3655641674995425 -1.1054932475090025 -0.10535045713186263 -0.35050311684608454 -0.66805174946784962 1.0000000180025095e-35
decision_type=2 2 2 2 2 2 2 2
left_child=1 3 -2 -1 5 6 -5 -8
right_child=2 -3 -4 4 -6 -7 7 -9
leaf_value=-0.030498644616936379 0.045857595412535021 0.007171223565093629 0.062687108017082382 -0.040098169822747769 -0.041324512195598184 -0.040144450516379493 -0.040068206952590321 -0.040068481444916065
leaf_weight=5.0116252452135113 7.8372254669666317 4.6170158684253684 11.912410438060759 4.4176581054925981 4.8575506657361975 4.2246585488319388 5.6632185727357847 5.8731269836425781
leaf_count=23 21 15 32 21 21 20 27 28
internal_value=-0.000428233 -0.0325821 0.0560087 -0.0386904 -0.0403302 -0.0400908 -0.0400766 -0.0400683
internal_weight=54.4145 34.6649 19.7496 30.0478 25.0362 20.1787 15.954 11.5363
internal_count=208 155 53 140 117 96 76 55
is_linear=0
shrinkage=0.05


Tree=23
num_leaves=1
num_cat=0
split_feature=
split_gain=
threshold=
decision_type=
left_child=
right_child=
leaf_value=0
leaf_weight=
leaf_count=208
internal_value=
internal_weight=
internal_count=
is_linear=0
shrinkage=1


Tree=24
num_leaves=9
num_cat=0
split_feature=0 3 1 1 0 0 3 7
split_gain=35.2433 5.31505 0.54309 0.163971 0.00187746 4.84238e-06 8.9271e-07 6.98126e-11
threshold=0.13980185985565188 0.79759743809700023 -0.34855040907859797 -1.1054932475090025 -0.10535045713186263 -0.35050311684608454 -0.66805174946784962 1.0000000180025095e-35
decision_type=2 2 2 2 2 2 2 2
left_child=3 2 -2 -1 5 6 -5 -8
right_child=1 -3 -4 4 -6 -7 7 -9
leaf_value=0.0296688611626389 -0.068847326466603187 -0.0081069126107492975 -0.050908191646905722 0.039576840045017714 0.040694058979770895 0.039619053009464118 0.039549555458968301 0.039549808242570976
leaf_weight=4.8150881528854397 7.8848346471786543 7.2532047033309928 9.0746002197265625 4.1853343397378984 4.6122719198465303 4.0028226524591473 5.365091070532797 5.563951849937439
leaf_count=23 22 21 25 21 21 20 27 28
internal_value=0.000443511 -0.0439284 -0.0592485 0.0380815 0.0397886 0.0395702 0.0395572 0.0395497
internal_weight=52.7572 24.2126 16.9594 28.5446 23.7295 19.1172 15.1144 10.929
internal_count=208 68 47 140 117 96 76 55
is_linear=0
shrinkage=0.05


Tree=25
num_leaves=9
num_cat=0
split_feature=0 3 1 1 0 0 3 7
split_gain=35.2433 5.31505 0.54309 0.163971 0.00187746 4.84238e-06 8.9271e-07 6.98126e-11
threshold=0.13980185985565188 0.79759743809700023 -0.34855040907859797 -1.1054932475090025 -0.10535045713186263 -0.35050311684608454 -0.66805174946784962 1.0000000180025095e-35
decision_type=2 2 2 2 2 2 2 2
left_child=3 2 -2 -1 5 6 -5 -8
right_child=1 -3 -4 4 -6 -7 7 -9
leaf_value=-0.0296688611626389 0.068847326466603187 0.0081069126107492975 0.050908191646905722 -0.039576840045017714 -0.040694058979770895 -0.039619053009464118 -0.039549555458968301 -0.039549808242570976
leaf_weight=4.8150881528854397 7.8848346471786543 7.2532047033309928 9.0746002197265625 4.1853343397378984 4.6122719198465303 4.0028226524591473 5.365091070532797 5.563951849937439
leaf_count=23 22 21 25 21 21 20 27 28
internal_value=-0.000443511 0.0439284 0.0592485 -0.0380815 -0.0397886 -0.0395702 -0.0395572 -0.0395497
internal_weight=52.7572 24.2126 16.9594 28.5446 23.7295 19.1172 15.1144 10.929
internal_count=208 68 47 140 117 96 76 55
is_linear=0
shrinkage=0.05


Tree=26
num_leaves=1
num_cat=0
split_feature=
split_gain=
threshold=
decision_type=
left_child=
right_child=
leaf_value=0
leaf_weight=
leaf_count=208
internal_value=
internal_weight=
internal_count=
is_linear=0
shrinkage=1


Tree=27
num_leaves=8
num_cat=0
split_feature=6 2 1 1 3 2 1
split_gain=22.2118 3.02335 2.02579 0.237997 0.0805725 0.00561666 6.83087e-05
threshold=1.0000000180025095e-35 0.44851726293563848 -0.34855040907859797 0.15607867762446406 0.93852522969245922 0.16409104689955714 -0.26444528996944422
decision_type=2 2 2 2 2 2 2
left_child=4 2 -2 -3 5 6 -1
right_child=1 3 -4 -5 -6 -7 -8
leaf_value=0.039387500045780864 -0.027205258492232928 -0.035342106676228661 0.0077441254278958933 -0.048312501295689557 0.047458831852252303 0.041381760936744533 0.039135492944149919
leaf_weight=6.2249745428562164 9.2137922048568743 6.2250178456306449 7.5386964976787594 8.1898394525051099 4.5507594943046561 4.4692895561456671 4.7338949739933032
leaf_count=32 35 21 32 24 18 21 25
internal_value=0.000457716 -0.0259233 -0.0114779 -0.0427113 0.0416124 0.0398879 0.0392786
internal_weight=51.1463 31.1673 16.7525 14.4149 19.9789 15.4282 10.9589
internal_count=208 112 67 45 96 78 57
is_linear=0
shrinkage=0.05


Tree=28
num_leaves=9
num_cat=0
split_feature=0 0 0 1 0 0 3 8
split_gain=32.1096 2.81365 0.557578 0.167153 0.00148354 3.82496e-06 7.03519e-07 5.30704e-11
threshold=0.71496745944023143 0.13980185985565188 1.3655641674995425 -1.1054932475090025 -0.10535045713186263 -0.35050311684608454 -0.66805174946784962 1.0000000180025095e-35
decision_type=2 2 2 2 2 2 2 2
left_child=1 3 -2 -1 5 6 -5 -8
right_child=2 -3 -4 4 -6 -7 7 -9
leaf_value=-0.028858939939787328 0.040018629540101415 0.0041539200606027903 0.057381262335901864 -0.039101698122131004 -0.040121699449693647 -0.039140280547621364 -0.039077029848832628 -0.039076803298856495
leaf_weight=4.6266812831163469 7.6900048553943661 4.7639032304286948 11.597443997859953 3.9613678008318045 4.3742672801017717 3.7889148741960517 5.2659468352794629 5.0777344107627869
leaf_count=23 21 15 32 21 21 20 28 27
internal_value=-0.000457716 -0.0312827 0.0504587 -0.0375133 -0.0392954 -0.0390956 -0.0390838 -0.0390769
internal_weight=51.1463 31.8588 19.2874 27.0949 22.4682 18.094 14.305 10.3437
internal_count=208 155 53 140 117 96 76 55
is_linear=0
shrinkage=0.05


Tree=29
num_leaves=1
num_cat=0
split_feature=
split_gain=
threshold=
decision_type=
left_child=
right_child=
leaf_value=0
leaf_weight=
leaf_count=208
internal_value=
internal_weight=
internal_count=
is_linear=0
shrinkage=1


Tree=30
num_leaves=8
num_cat=0
split_feature=0 0 0 1 0 6 3
split_gain=29.5465 2.75345 0.504996 0.168931 0.00115835 0.000125717 4.9861e-07
threshold=0.71496745944023143 0.13980185985565188 1.3655641674995425 -1.1054932475090025 -0.16192431747913358 1.0000000180025095e-35 -0.4425672441720962
decision_type=2 2 2 2 2 2 2
left_child=1 3 -2 -1 5 6 -5
right_child=2 -3 -4 4 -6 -7 -8
leaf_value=0.028294677626907822 -0.038582257220548748 -0.0042859472610582792 -0.05521097456069745 0.038658541434701689 0.0396381344016438 0.038923941909123787 0.038635560233510155
leaf_weight=4.4958859384059968 7.6176902353763607 4.7496881484985343 11.396053940057753 3.7413519322872251 4.7661639302968934 6.6400645375251761 6.3937226980924606
leaf_count=23 21 15 32 21 24 36 36
internal_value=0.000457773 0.0307239 -0.0485488 0.0371104 0.0389503 0.0387548 0.038644
internal_weight=49.8006 30.7869 19.0137 26.0372 21.5413 16.7751 10.1351
internal_count=208 155 53 140 117 93 57
is_linear=0
shrinkage=0.05


Tree=31
num_leaves=8
num_cat=0
split_feature=0 0 0 1 0 6 3
split_gain=29.5465 2.75345 0.504996 0.168931 0.00115835 0.000125717 4.9861e-07
threshold=0.71496745944023143 0.13980185985565188 1.3655641674995425 -1.1054932475090025 -0.16192431747913358 1.0000000180025095e-35 -0.4425672441720962
decision_type=2 2 2 2 2 2 2
left_child=1 3 -2 -1 5 6 -5
right_child=2 -3 -4 4 -6 -7 -8
leaf_value=-0.028294677626907822 0.038582257220548748 0.0042859472610582792 0.05521097456069745 -0.038658541434701689 -0.0396381344016438 -0.038923941909123787 -0.038635560233510155
leaf_weight=4.4958859384059968 7.6176902353763607 4.7496881484985343 11.396053940057753 3.7413519322872251 4.7661639302968934 6.6400645375251761 6.3937226980924606
leaf_count=23 21 15 32 21 24 36 36
internal_value=-0.000457773 -0.0307239 0.0485488 -0.0371104 -0.0389503 -0.0387548 -0.038644
internal_weight=49.8006 30.7869 19.0137 26.0372 21.5413 16.7751 10.1351
internal_count=208 155 53 140 117 93 57
is_linear=0
shrinkage=0.05


Tree=32
num_leaves=1
num_cat=0
split_feature=
split_gain=
threshold=
decision_type=
left_child=
right_child=
leaf_value=0
leaf_weight=
leaf_count=208
internal_value=
internal_weight=
internal_count=
is_linear=0
shrinkage=1


Tree=33
num_leaves=8
num_cat=0
split_feature=0 0 0 1 0 6 3
split_gain=26.593 2.63195 0.484619 0.173115 0.000919363 9.95683e-05 3.9511e-07
threshold=0.71496745944023143 0.13980185985565188 1.3655641674995425 -1.1054932475090025 -0.16192431747913358 1.0000000180025095e-35 -0.4425672441720962
decision_type=2 2 2 2 2 2 2
left_child=1 3 -2 -1 5 6 -5
right_child=2 -3 -4 4 -6 -7 -8
leaf_value=0.027511646107857342 -0.036505366485859801 -0.0039867075351148109 -0.052945999655191062 0.038262327880639158 0.039159480872503399 0.038505273258478939 0.038241281870683409
leaf_weight=4.321584612131125 7.5177465677261379 4.7652273774147025 11.101250052452086 3.5350727289915138 4.5114250183105424 6.277071386575698 6.0409459173679352
leaf_count=23 21 15 32 21 24 36 36
internal_value=0.000464538 0.0300338 -0.0463078 0.0366009 0.0385297 0.0383505 0.0382491
internal_weight=48.0703 29.4513 18.619 24.6861 20.3645 15.8531 9.57602
internal_count=208 155 53 140 117 93 57
is_linear=0
shrinkage=0.05


Tree=34
num_leaves=8
num_cat=0
split_feature=0 0 0 3 0 6 7
split_gain=26.593 2.63195 0.484619 0.170741 0.00089373 0.000100924 1.89231e-05
threshold=0.71496745944023143 0.13980185985565188 1.3655641674995425 -1.0908351540565489 -0.16192431747913358 1.0000000180025095e-35 1.0000000180025095e-35
decision_type=2 2 2 2 2 2 2
left_child=1 3 -2 -1 5 6 -5
right_child=2 -3 -4 4 -6 -7 -8
leaf_value=-0.027970754236260272 0.036505366485859801 0.0039867075351148109 0.052945999655191062 -0.038382172508122453 -0.039205345512530458 -0.038575399407283495 -0.038238209686657088
leaf_weight=4.6513265669345918 7.5177465677261379 4.7652273774147025 11.101250052452086 4.7896819859743172 4.728013768792148 6.1562079042196265 4.360869437456131
leaf_count=26 21 15 32 28 25 35 26
internal_value=-0.000464538 -0.0300338 0.0463078 -0.0366009 -0.0386045 -0.0384189 -0.0383136
internal_weight=48.0703 29.4513 18.619 24.6861 20.0348 15.3068 9.15055
internal_count=208 155 53 140 114 89 54
is_linear=0
shrinkage=0.05


Tree=35
num_leaves=1
num_cat=0
split_feature=
split_gain=
threshold=
decision_type=
left_child=
right_child=
leaf_value=0
leaf_weight=
leaf_count=208
internal_value=
internal_weight=
internal_count=
is_linear=0
shrinkage=1


Tree=36
num_leaves=8
num_cat=0
split_feature=0 0 1 2 0 6 7
split_gain=24.0101 4.07843 0.179785 0.000882332 0.00072228 7.77427e-05 9.12579e-07
threshold=0.13980185985565188 0.87525916099548351 -1.1054932475090025 0.73294347524642955 -0.16192431747913358 1.0000000180025095e-35 1.0000000180025095e-35
decision_type=2 2 2 2 2 2 2
left_child=2 -2 -1 -3 5 6 -4
right_child=1 3 4 -5 -6 -7 -8
leaf_value=0.026663596486936128 -0.0071374112403794921 -0.050921499795706975 0.037908944662668601 -0.051691450001307399 0.038723937830315136 0.038127302088833775 0.037877062957053925
leaf_weight=4.1388828456401852 8.0330587923526782 7.0873010754585248 4.9348388165235537 7.8335750997066498 4.2677630931138966 5.9342094212770471 4.117180660367012
leaf_count=23 24 21 31 23 24 36 26
internal_value=0.000469043 -0.0358614 0.0361178 -0.0513257 0.0381501 0.0379867 0.0378944
internal_weight=46.3468 22.9539 23.3929 14.9209 19.254 14.9862 9.05202
internal_count=208 68 140 44 117 93 57
is_linear=0
shrinkage=0.05


Tree=37
num_leaves=8
num_cat=0
split_feature=0 3 1 1 0 6 3
split_gain=24.0101 4.93029 0.336958 0.179785 0.00072228 7.77427e-05 1.34357e-06
threshold=0.13980185985565188 0.57211294770240795 -0.1803401783108711 -1.1054932475090025 -0.16192431747913358 1.0000000180025095e-35 -0.4425672441720962
decision_type=2 2 2 2 2 2 2
left_child=3 2 -2 -1 5 6 -5
right_child=1 -3 -4 4 -6 -7 -8
leaf_value=-0.026663596486936128 0.060931203516936795 0.0055202634361233485 0.045677188535846937 -0.037919582387716588 -0.038723937830315136 -0.038127302088833775 -0.037879682869194374
leaf_weight=4.1388828456401852 7.4912911057472229 8.4564089775085431 7.0062348842620867 3.3488018810749081 4.2677630931138966 5.9342094212770471 5.7032175958156577
leaf_count=23 22 25 21 21 24 36 36
internal_value=-0.000469043 0.0358614 0.0535594 -0.0361178 -0.0381501 -0.0379867 -0.0378944
internal_weight=46.3468 22.9539 14.4975 23.3929 19.254 14.9862 9.05202
internal_count=208 68 43 140 117 93 57
is_linear=0
shrinkage=0.05


Tree=38
num_leaves=1
num_cat=0
split_feature=
split_gain=
threshold=
decision_type=
left_child=
right_child=
leaf_value=0
leaf_weight=
leaf_count=208
internal_value=
internal_weight=
internal_count=
is_linear=0
shrinkage=1


Tree=39
num_leaves=8
num_cat=0
split_feature=0 0 0 1 0 6 3
split_gain=21.9114 2.30996 0.489675 0.184732 0.000575924 6.18637e-05 1.07584e-06
threshold=0.71496745944023143 0.13980185985565188 1.3655641674995425 -1.1054932475090025 -0.16192431747913358 1.0000000180025095e-35 -0.4425672441720962
decision_type=2 2 2 2 2 2 2
left_child=1 3 -2 -1 5 6 -5
right_child=2 -3 -4 4 -6 -7 -8
leaf_value=0.02590514959121917 -0.032753959373059804 -0.002493259861412289 -0.049667189927189236 0.037584697217926712 0.038323602384925624 0.037775359701175917 0.037547940965307953
leaf_weight=3.9814763367176118 7.2403222918510464 4.8325417637825003 10.465089350938795 3.1598360836505943 4.0328111499547914 5.6014595031738272 5.3808963149785995
leaf_count=23 21 15 32 21 24 36 36
internal_value=0.000472614 0.0288282 -0.0427508 0.0356597 0.0377965 0.0376462 0.0375615
internal_weight=44.6944 26.989 17.7054 22.1565 18.175 14.1422 8.54073
internal_count=208 155 53 140 117 93 57
is_linear=0
shrinkage=0.05


Tree=40
num_leaves=8
num_cat=0
split_feature=6 2 8 3 3 2 1
split_gain=17.6638 1.79446 1.57615 0.614155 0.130606 0.00824156 0.000108953
threshold=1.0000000180025095e-35 0.73294347524642955 1.0000000180025095e-35 -0.49893836677074427 0.93852522969245922 0.16409104689955714 -0.68496924638748158
decision_type=2 2 2 2 2 2 2
left_child=4 2 -2 -4 5 6 -1
right_child=1 -3 3 -5 -6 -7 -8
leaf_value=-0.038001699934194472 -0.0033777833468004478 0.042275026281810679 0.015415090142779456 0.038198555592458029 -0.048902233918780041 -0.040576477125833725 -0.037643572662172192
leaf_weight=3.5388647466897964 7.1660020053386733 8.9587626159191114 6.1763739287853268 5.6761965304613087 4.0896403044462195 3.7775810658931723 5.3110115975141543
leaf_count=22 33 30 29 20 18 21 35
internal_value=-0.000472614 0.0238249 0.015134 0.0263261 -0.0411364 -0.0386213 -0.0377868
internal_weight=44.6944 27.9773 19.0186 11.8526 16.7171 12.6275 8.84988
internal_count=208 112 82 49 96 78 57
is_linear=0
shrinkage=0.05


Tree=41
num_leaves=1
num_cat=0
split_feature=
split_gain=
threshold=
decision_type=
left_child=
right_child=
leaf_value=0
leaf_weight=
leaf_count=208
internal_value=
internal_weight=
internal_count=
is_linear=0
shrinkage=1


Tree=42
num_leaves=8
num_cat=0
split_feature=0 0 0 1 1 6 1
split_gain=20.2895 3.2899 0.194258 0.0747805 0.000687855 0.000268214 1.07616e-06
threshold=0.83754360675811779 0.13980185985565188 -0.12420840933918952 0.49249751865863806 -1.1054932475090025 1.0000000180025095e-35 0.32428811490535742
decision_type=2 2 2 2 2 2 2
left_child=1 2 4 -2 -1 6 -6
right_child=3 -3 -4 -5 5 -7 -8
leaf_value=0.038220061748601215 -0.049133910336084483 -0.0043976019708874903 0.025226491232866122 -0.042042228208107692 0.037263623396487554 0.037694155930995663 0.037226314014997708
leaf_weight=3.5017677396535936 8.700910955667494 6.9024969637393943 3.885406136512759 6.4901089966297141 4.8114892691373807 5.8252704143524161 3.2304296940565109
leaf_count=21 27 21 24 20 34 38 23
internal_value=0.000467364 0.0255933 0.0353331 -0.0461041 0.0375939 0.0374358 0.0372486
internal_weight=43.3479 28.1569 21.2544 15.191 17.369 13.8672 8.04192
internal_count=208 161 140 47 116 95 57
is_linear=0
shrinkage=0.05


Tree=43
num_leaves=8
num_cat=0
split_feature=6 2 8 3 3 2 1
split_gain=16.4564 1.60639 1.48229 0.541859 0.128983 0.0078734 0.000106619
threshold=1.0000000180025095e-35 0.73294347524642955 1.0000000180025095e-35 -0.49893836677074427 0.93852522969245922 0.16409104689955714 -0.68496924638748158
decision_type=2 2 2 2 2 2 2
left_child=4 2 -2 -4 5 6 -1
right_child=1 -3 3 -5 -6 -7 -8
leaf_value=-0.037695033190921177 -0.0034288562925931022 0.040712856018189823 0.015356305768243579 0.036915691161621363 -0.048736860132178643 -0.040273014877266561 -0.037330886604202633
leaf_weight=3.3577413856983167 7.0167230963707015 8.7294772118329984 6.1063986718654641 5.5754456967115393 3.9517434984445563 3.601901799440383 5.0084488093852997
leaf_count=22 33 30 29 20 18 21 35
internal_value=-0.000467364 0.0230033 0.0147356 0.025646 -0.0409046 -0.0383185 -0.037477
internal_weight=43.3479 27.428 18.6986 11.6818 15.9198 11.9681 8.36619
internal_count=208 112 82 49 96 78 57
is_linear=0
shrinkage=0.05


Tree=44
num_leaves=1
num_cat=0
split_feature=
split_gain=
threshold=
decision_type=
left_child=
right_child=
leaf_value=0
leaf_weight=
leaf_count=208
internal_value=
internal_weight=
internal_count=
is_linear=0
shrinkage=1


Tree=45
num_leaves=9
num_cat=0
split_feature=0 3 2 0 6 3 3 7
split_gain=18.9254 4.61766 0.207022 0.201397 0.000719661 6.49164e-05 6.09622e-05 1.34183e-05
threshold=0.13980185985565188 0.57211294770240795 0.30630415678024298 -0.12420840933918952 1.0000000180025095e-35 -0.55530950427055348 -0.75260844826698292 1.0000000180025095e-35
decision_type=2 2 2 2 2 2 2 2
left_child=3 2 -2 4 6 -6 -1 -8
right_child=1 -3 -4 -5 5 -7 7 -9
leaf_value=0.037274574796714803 -0.056169790568693492 -0.0023235246680321513 -0.043791091402727959 0.024553455213700986 0.037931375484688397 0.037627369061459935 0.03708450031892431 0.036938297789234714
leaf_weight=3.245360746979717 6.8036841750144976 8.1241480410099012 6.7073243856430054 3.7483398467302314 3.1765181124210358 3.9267999082803717 2.9906810373067874 3.3022403120994568
leaf_count=23 21 25 22 24 20 26 22 25
internal_value=0.000461077 -0.0321125 -0.0500246 0.0350239 0.0373823 0.0377633 0.0370986 0.0370078
internal_weight=42.0251 21.6352 13.511 20.3899 16.6416 7.10332 9.53828 6.29292
internal_count=208 68 43 140 116 46 70 47
is_linear=0
shrinkage=0.05


Tree=46
num_leaves=8
num_cat=0
split_feature=0 3 1 0 1 4 5
split_gain=18.9254 4.61766 0.306775 0.201397 0.00058499 0.00018424 0.000336568
threshold=0.13980185985565188 0.57211294770240795 -0.1803401783108711 -0.12420840933918952 -1.1054932475090025 1.0000000180025095e-35 1.0000000180025095e-35
decision_type=2 2 2 2 2 2 2
left_child=3 2 -2 4 -1 6 -6
right_child=1 -3 -4 -5 5 -7 -8
leaf_value=-0.037971948895054723 0.057227515969446988 0.0023235246680321513 0.042143915053591025 -0.024553455213700986 -0.03759343315303703 -0.036955070917989948 -0.036968484135397689
leaf_weight=3.3576677739620253 7.0590420663356781 8.1241480410099012 6.4519664943218249 3.7483398467302314 5.7163693159818632 4.1101359874010095 3.4574270397424698
leaf_count=21 22 25 21 24 38 31 26
internal_value=-0.000461077 0.0321125 0.0500246 -0.0350239 -0.0373823 -0.0372333 -0.0373579
internal_weight=42.0251 21.6352 13.511 20.3899 16.6416 13.2839 9.1738
internal_count=208 68 43 140 116 95 64
is_linear=0
shrinkage=0.05


Tree=47
num_leaves=1
num_cat=0
split_feature=
split_gain=
threshold=
decision_type=
left_child=
right_child=
leaf_value=0
leaf_weight=
leaf_count=208
internal_value=
internal_weight=
internal_count=
is_linear=0
shrinkage=1


Tree=48
num_leaves=10
num_cat=0
split_feature=0 6 0 0 2 0 3 3 7
split_gain=17.5661 2.81483 5.61199 0.200281 0.0580649 0.000228853 5.20441e-05 4.61192e-05 1.02037e-05
threshold=0.83754360675811779 1.0000000180025095e-35 -0.12420840933918952 0.13980185985565188 0.59073036909103405 -0.18078227341175077 -0.55530950427055348 -0.75260844826698292 1.0000000180025095e-35
decision_type=2 2 2 2 2 2 2 2 2
left_child=1 3 6 5 -2 7 -3 -1 -9
right_child=4 2 -4 -5 -6 -7 -8 8 -10
leaf_value=0.036991094467300964 -0.040505357919305415 0.037596696654879032 -0.031403512169603902 0.051803104313135985 -0.046898289541585293 0.037362608574800969 0.037316450698634061 0.036816096455216794 0.036680533165334379
leaf_weight=3.0582247525453532 6.4769743084907514 2.9977219104766846 5.3024587631225586 2.8444580137729654 7.8646520972251892 2.7018628790974626 3.7031738758087158 2.817303866147995 2.7362015619874001
leaf_count=23 21 20 20 9 26 19 26 22 22
internal_value=0.000461742 0.0248417 0.00702953 0.039943 -0.0440111 0.0369611 0.0374418 0.0368352 0.0367493
internal_weight=40.503 26.1614 12.0034 14.1581 14.3416 11.3136 6.7009 8.61173 5.55351
internal_count=208 161 66 95 47 86 46 67 44
is_linear=0
shrinkage=0.05


Tree=49
num_leaves=8
num_cat=0
split_feature=6 2 8 3 3 2 1
split_gain=14.6628 1.40356 1.34268 0.401429 0.128034 0.00936711 5.99415e-05
threshold=1.0000000180025095e-35 0.73294347524642955 1.0000000180025095e-35 -0.49893836677074427 0.93852522969245922 0.16409104689955714 -0.68496924638748158
decision_type=2 2 2 2 2 2 2
left_child=4 2 -2 -4 5 6 -1
right_child=1 -3 3 -5 -6 -7 -8
leaf_value=-0.037096165914123173 -0.0037470872504467771 0.038997455038869283 0.015653779414772296 0.034732752178151673 -0.048621861353294521 -0.040117992981856747 -0.036806959837076138
leaf_weight=2.9894720911979666 6.6130483597517058 8.3036803305149061 5.791897341609002 5.2616044282913199 3.7596929296851149 3.312128446996212 4.471508100628852
leaf_count=22 33 30 29 20 18 21 35
internal_value=-0.000461742 0.0220428 0.0140738 0.0247356 -0.0406776 -0.0379052 -0.0369228
internal_weight=40.503 25.9702 17.6666 11.0535 14.5328 10.7731 7.46098
internal_count=208 112 82 49 96 78 57
is_linear=0
shrinkage=0.05


Tree=50
num_leaves=1
num_cat=0
split_feature=
split_gain=
threshold=
decision_type=
left_child=
right_child=
leaf_value=0
leaf_weight=
leaf_count=208
internal_value=
internal_weight=
internal_count=
is_linear=0
shrinkage=1


Tree=51
num_leaves=10
num_cat=0
split_feature=0 6 0 0 1 3 0 1 1
split_gain=16.3547 3.42882 6.18822 0.241422 0.195743 0.00844356 0.00133011 0.00010924 1.0413e-06
threshold=0.87525916099548351 1.0000000180025095e-35 0.13980185985565188 0.20580451190471652 -0.43265552818775171 0.12114396691322328 -0.12420840933918952 -0.93728378415107716 0.32428811490535742
decision_type=2 2 2 2 2 2 2 2 2
left_child=1 3 4 6 -3 -2 7 -1 -9
right_child=5 2 -4 -5 -6 -7 -8 8 -10
leaf_value=0.036838619593271088 -0.044494972914291837 0.021217070688069151 -0.04129413788403434 0.053209958397105586 0.037395705161577773 -0.047057760162635173 0.037897204698274845 0.036472936001995394 0.036430288499856078
leaf_weight=2.6990409493446315 6.4246504604816419 3.0367056131362915 4.6964211165904999 2.853130280971528 4.8643626272678375 6.4311889111995697 2.4603746086359033 3.0680211111903191 2.6829344928264618
leaf_count=21 23 20 14 9 34 21 17 26 23
internal_value=0.000459615 0.0230085 0.00415969 0.0402605 0.0311776 -0.045777 0.0368741 0.0365762 0.036453
internal_weight=39.2168 26.361 12.5975 13.7635 7.90107 12.8558 10.9104 8.45 5.75096
internal_count=208 164 68 96 54 44 87 70 49
is_linear=0
shrinkage=0.05


Tree=52
num_leaves=10
num_cat=0
split_feature=0 6 0 0 1 3 0 1 1
split_gain=16.3547 3.42882 6.18822 0.241422 0.195743 0.00844356 0.00133011 0.00010924 1.0413e-06
threshold=0.87525916099548351 1.0000000180025095e-35 0.13980185985565188 0.20580451190471652 -0.43265552818775171 0.12114396691322328 -0.12420840933918952 -0.93728378415107716 0.32428811490535742
decision_type=2 2 2 2 2 2 2 2 2
left_child=1 3 4 6 -3 -2 7 -1 -9
right_child=5 2 -4 -5 -6 -7 -8 8 -10
leaf_value=-0.036838619593271088 0.044494972914291837 -0.021217070688069151 0.04129413788403434 -0.053209958397105586 -0.037395705161577773 0.047057760162635173 -0.037897204698274845 -0.036472936001995394 -0.036430288499856078
leaf_weight=2.6990409493446315 6.4246504604816419 3.0367056131362915 4.6964211165904999 2.853130280971528 4.8643626272678375 6.4311889111995697 2.4603746086359033 3.0680211111903191 2.6829344928264618
leaf_count=21 23 20 14 9 34 21 17 26 23
internal_value=-0.000459615 -0.0230085 -0.00415969 -0.0402605 -0.0311776 0.045777 -0.0368741 -0.0365762 -0.036453
internal_weight=39.2168 26.361 12.5975 13.7635 7.90107 12.8558 10.9104 8.45 5.75096
internal_count=208 164 68 96 54 44 87 70 49
is_linear=0
shrinkage=0.05


Tree=53
num_leaves=1
num_cat=0
split_feature=
split_gain=
threshold=
decision_type=
left_child=
right_child=
leaf_value=0
leaf_weight=
leaf_count=208
internal_value=
internal_weight=
internal_count=
is_linear=0
shrinkage=1


Tree=54
num_leaves=10
num_cat=0
split_feature=0 8 0 0 3 6 0 1 3
split_gain=14.9342 3.24869 10.504 0.192507 0.00643185 0.000619182 0.000370589 5.32795e-05 1.43983e-05
threshold=0.87525916099548351 1.0000000180025095e-35 -0.12420840933918952 0.13980185985565188 0.12114396691322328 1.0000000180025095e-35 -0.16192431747913358 -0.68496924638748158 0.40299956500530248
decision_type=2 2 2 2 2 2 2 2 2
left_child=1 3 5 6 -2 7 8 -3 -1
right_child=4 2 -4 -5 -6 -7 -8 -9 -10
leaf_value=0.036364012972820367 -0.043549981463063513 0.036575591648257251 -0.058245968844223284 0.05013389975763171 -0.045836025536545089 0.037272627099847147 0.037150027031291173 0.036251949574875188 0.036534154286338244
leaf_weight=2.283085234463214 6.1362495869398099 2.6524865999817822 4.3538223132491121 3.9855002760887155 6.1712644696235657 3.664362907409668 3.1305276453495017 2.4427707865834245 2.7307072803378105
leaf_count=20 23 22 15 13 21 26 23 22 23
internal_value=0.000462137 0.0224794 0.00522817 0.0411296 -0.0446963 0.0367769 0.0367232 0.0364204 0.0364567
internal_weight=37.5508 25.2433 13.1134 12.1298 12.3075 8.75962 8.14432 5.09526 5.01379
internal_count=208 164 85 79 44 70 66 44 43
is_linear=0
shrinkage=0.05


Tree=55
num_leaves=10
num_cat=0
split_feature=0 7 0 0 3 6 0 1 3
split_gain=14.9342 3.24869 10.504 0.192507 0.00643185 0.000619182 0.000370589 5.32795e-05 1.43983e-05
threshold=0.87525916099548351 1.0000000180025095e-35 -0.12420840933918952 0.13980185985565188 0.12114396691322328 1.0000000180025095e-35 -0.16192431747913358 -0.68496924638748158 0.40299956500530248
decision_type=2 2 2 2 2 2 2 2 2
left_child=1 2 5 6 -2 7 8 -1 -3
right_child=4 3 -4 -5 -6 -7 -8 -9 -10
leaf_value=-0.036575591648257251 0.043549981463063513 -0.036364012972820367 0.058245968844223284 -0.05013389975763171 0.045836025536545089 -0.037272627099847147 -0.037150027031291173 -0.036251949574875188 -0.036534154286338244
leaf_weight=2.6524865999817822 6.1362495869398099 2.283085234463214 4.3538223132491121 3.9855002760887155 6.1712644696235657 3.664362907409668 3.1305276453495017 2.4427707865834245 2.7307072803378105
leaf_count=22 23 20 15 13 21 26 23 22 23
internal_value=-0.000462137 -0.0224794 -0.00522817 -0.0411296 0.0446963 -0.0367769 -0.0367232 -0.0364204 -0.0364567
internal_weight=37.5508 25.2433 13.1134 12.1298 12.3075 8.75962 8.14432 5.09526 5.01379
internal_count=208 164 85 79 44 70 66 44 43
is_linear=0
shrinkage=0.05


Tree=56
num_leaves=1
num_cat=0
split_feature=
split_gain=
threshold=
decision_type=
left_child=
right_child=
leaf_value=0
leaf_weight=
leaf_count=208
internal_value=
internal_weight=
internal_count=
is_linear=0
shrinkage=1


Tree=57
num_leaves=10
num_cat=0
split_feature=0 6 0 0 3 0 1 1 1
split_gain=13.6752 3.03009 5.18111 0.151433 0.0049314 0.000971319 0.00011177 7.09642e-05 6.91061e-07
threshold=0.87525916099548351 1.0000000180025095e-35 -0.12420840933918952 0.20580451190471652 0.12114396691322328 -0.12420840933918952 -0.34855040907859797 -0.93728378415107716 0.32428811490535742
decision_type=2 2 2 2 2 2 2 2 2
left_child=1 3 6 5 -2 7 -3 -1 -9
right_child=4 2 -4 -5 -6 -7 -8 8 -10
leaf_value=0.036360440495000229 -0.042702364530648365 0.037082206607172728 -0.029645377030242327 0.049868567592884036 -0.044750241998811523 0.037325641332732938 0.036645473834142232 0.036047483525187336 0.036010549534377954
leaf_weight=2.3922802060842487 5.850547328591345 2.707490049302578 5.8198245316743851 2.6629144698381433 5.9085241556167603 2.2256712540984163 3.1923093870282173 2.7152406498789787 2.3736704736948013
leaf_count=21 23 20 22 9 21 17 26 26 23
internal_value=0.00046925 0.0220455 0.00382713 0.0393062 -0.0437314 0.0364086 0.0368459 0.0361358 0.0360303
internal_weight=35.8485 24.0894 11.7196 12.3698 11.7591 9.70686 5.8998 7.48119 5.08891
internal_count=208 164 68 96 44 87 46 70 49
is_linear=0
shrinkage=0.05


Tree=58
num_leaves=10
num_cat=0
split_feature=0 6 0 0 0 1 1 1 1
split_gain=13.6752 3.03009 5.18111 0.151433 0.000971319 0.000433463 0.00011177 7.09642e-05 6.91061e-07
threshold=0.87525916099548351 1.0000000180025095e-35 -0.12420840933918952 0.20580451190471652 -0.12420840933918952 0.15607867762446406 -0.34855040907859797 -0.93728378415107716 0.32428811490535742
decision_type=2 2 2 2 2 2 2 2 2
left_child=1 3 6 4 7 -2 -3 -1 -9
right_child=5 2 -4 -5 -6 -7 -8 8 -10
leaf_value=-0.036360440495000229 0.043393007257304828 -0.037082206607172728 0.029645377030242327 -0.049868567592884036 -0.037325641332732938 0.044003721973253557 -0.036645473834142232 -0.036047483525187336 -0.036010549534377954
leaf_weight=2.3922802060842487 5.2443827241659147 2.707490049302578 5.8198245316743851 2.6629144698381433 2.2256712540984163 6.5146887600421906 3.1923093870282173 2.7152406498789787 2.3736704736948013
leaf_count=21 20 20 22 9 17 24 26 26 23
internal_value=-0.00046925 -0.0220455 -0.00382713 -0.0393062 -0.0364086 0.0437314 -0.0368459 -0.0361358 -0.0360303
internal_weight=35.8485 24.0894 11.7196 12.3698 9.70686 11.7591 5.8998 7.48119 5.08891
internal_count=208 164 68 96 87 44 46 70 49
is_linear=0
shrinkage=0.05


Tree=59
num_leaves=1
num_cat=0
split_feature=
split_gain=
threshold=
decision_type=
left_child=
right_child=
leaf_value=0
leaf_weight=
leaf_count=208
internal_value=
internal_weight=
internal_count=
is_linear=0
shrinkage=1


Tree=60
num_leaves=8
num_cat=0
split_feature=0 0 1 0 6 1 1
split_gain=12.5175 2.73147 0.260312 0.000821399 0.000332467 0.000331075 6.78398e-07
threshold=0.13980185985565188 0.87525916099548351 -1.1054932475090025 -0.16192431747913358 1.0000000180025095e-35 0.15607867762446406 0.32428811490535742
decision_type=2 2 2 2 2 2 2
left_child=2 -2 -1 4 6 -3 -4
right_child=1 5 3 -5 -6 -7 -8
leaf_value=0.019777781805576385 -0.0036557909713386613 -0.042564750132165798 0.035860124915807361 0.037036681863224806 0.036435285218325023 -0.043111319118118739 0.035824520054106655
leaf_weight=2.9177350401878348 7.3531695455312756 4.9984519928693754 3.3401551395654643 3.0692868754267701 4.1926079317927361 6.2162652760744095 2.2317260652780533
leaf_count=23 24 20 34 24 36 24 23
internal_value=0.000473184 -0.0273392 0.0332584 0.0363232 0.0360989 -0.0428677 0.0358459
internal_weight=34.3194 18.5679 15.7515 12.8338 9.76449 11.2147 5.57188
internal_count=208 68 140 117 93 44 57
is_linear=0
shrinkage=0.05


Tree=61
num_leaves=9
num_cat=0
split_feature=0 3 3 2 6 0 0 7
split_gain=12.5175 3.42108 0.258256 0.122281 0.000819985 0.00026522 0.000132539 7.06003e-06
threshold=0.13980185985565188 0.57211294770240795 -1.0908351540565489 0.30630415678024298 1.0000000180025095e-35 -0.36936107277870173 -0.18078227341175077 1.0000000180025095e-35
decision_type=2 2 2 2 2 2 2 2
left_child=2 3 -1 -2 6 -6 7 -4
right_child=1 -3 4 -5 5 -7 -8 -9
leaf_value=-0.020165411048018465 0.049426385241767845 0.00038104326987949778 -0.035946595416775258 0.039046614432917598 -0.0365429703005569 -0.037236690243376037 -0.036372565471902915 -0.03582761130607804
leaf_weight=3.0395140349864951 5.8894246220588702 7.2031287699937812 2.8209115788340542 5.4753334224224091 3.2241093069314957 2.405894823372364 2.0269909128546724 2.2340903952717781
leaf_count=26 21 25 28 22 27 18 18 23
internal_value=-0.000473184 0.0273392 -0.0332584 0.0444256 -0.036389 -0.0368394 -0.036031 -0.035894
internal_weight=34.3194 18.5679 15.7515 11.3648 12.712 5.63 7.08199 5.055
internal_count=208 68 140 43 114 45 69 51
is_linear=0
shrinkage=0.05


Tree=62
num_leaves=1
num_cat=0
split_feature=
split_gain=
threshold=
decision_type=
left_child=
right_child=
leaf_value=0
leaf_weight=
leaf_count=208
internal_value=
internal_weight=
internal_count=
is_linear=0
shrinkage=1


Tree=63
num_leaves=10
num_cat=0
split_feature=0 8 0 0 3 6 0 1 3
split_gain=11.6344 2.99658 8.58281 0.135447 0.00436544 0.000328645 0.000325578 3.8578e-05 7.18418e-06
threshold=0.87525916099548351 1.0000000180025095e-35 -0.12420840933918952 0.13980185985565188 0.12114396691322328 1.0000000180025095e-35 -0.16192431747913358 -0.68496924638748158 0.40299956500530248
decision_type=2 2 2 2 2 2 2 2 2
left_child=1 3 5 6 -2 7 8 -3 -1
right_child=4 2 -4 -5 -6 -7 -8 -9 -10
leaf_value=0.03577460732217818 -0.041214443859218679 0.035993516848782318 -0.053223260652323127 0.047928376954267361 -0.043230068208127692 0.036527269687644207 0.036551156717972377 0.035692971141894146 0.035906356653682796
leaf_weight=1.8998412340879438 5.2816048562526685 2.2438607290387136 4.2298118621110934 3.7591900527477264 5.466641366481781 3.0877785012125969 2.6983758211135864 2.0370297506451607 2.272256925702095
leaf_count=20 23 22 15 13 21 26 23 22 23
internal_value=0.000469709 0.0211215 0.00354666 0.0402981 -0.0422396 0.0361341 0.0361232 0.0358505 0.0358464
internal_weight=32.9764 22.2281 11.5985 10.6297 10.7482 7.36867 6.87047 4.28089 4.1721
internal_count=208 164 85 79 44 70 66 44 43
is_linear=0
shrinkage=0.05


Tree=64
num_leaves=8
num_cat=0
split_feature=6 2 7 1 3 2 1
split_gain=10.0454 0.9333 1.20808 0.327205 0.0618667 0.00561983 5.75909e-05
threshold=1.0000000180025095e-35 0.73294347524642955 1.0000000180025095e-35 -0.85317948460578907 0.93852522969245922 0.44851726293563848 -0.60086414217948902
decision_type=2 2 2 2 2 2 2
left_child=4 2 3 -2 5 6 -1
right_child=1 -3 -4 -5 -6 -7 -8
leaf_value=-0.036047514779954944 0.033253045362112779 0.034637199913130017 -0.0061813667217608496 0.014533731638291185 -0.044911137623950007 -0.038922598155491907 -0.035735128926104302
leaf_weight=2.4734289050102225 4.3758148699998838 6.8400923907756797 5.5396655872464171 5.0039469227194822 3.1026055142283431 1.9843032881617544 3.6565336212515822
leaf_count=24 21 30 33 28 18 15 39
internal_value=-0.000469709 0.0193439 0.0123324 0.0232666 -0.038906 -0.0366098 -0.0358612
internal_weight=32.9764 21.7595 14.9194 9.37976 11.2169 8.11427 6.12996
internal_count=208 112 82 49 96 78 63
is_linear=0
shrinkage=0.05


Tree=65
num_leaves=1
num_cat=0
split_feature=
split_gain=
threshold=
decision_type=
left_child=
right_child=
leaf_value=0
leaf_weight=
leaf_count=208
internal_value=
internal_weight=
internal_count=
is_linear=0
shrinkage=1


Tree=66
num_leaves=10
num_cat=0
split_feature=0 7 0 0 6 6 1 0 1
split_gain=10.9124 2.81031 8.00205 0.110614 0.000462211 0.000317941 0.000299371 5.36774e-05 3.10039e-05
threshold=0.87525916099548351 1.0000000180025095e-35 -0.12420840933918952 0.13980185985565188 1.0000000180025095e-35 1.0000000180025095e-35 0.15607867762446406 -0.23735576868057248 -0.68496924638748158
decision_type=2 2 2 2 2 2 2 2 2
left_child=1 2 4 5 8 7 -2 -3 -1
right_child=6 3 -4 -5 -6 -7 -8 -9 -10
leaf_value=0.035807640970267764 -0.041392849890398598 0.035488920771559372 -0.051183319694415357 0.046869713570469956 0.036491191723283932 0.036375337720815679 -0.041934114213379135 0.035873756217950907 0.035529673478870198
leaf_weight=2.1085825785994547 4.590790241956709 1.8819527029991152 4.1860034316778201 3.6293436586856842 3.0551449432969093 2.9160430282354355 5.7598419338464737 1.7474732995033262 1.9135061055421827
leaf_count=22 20 22 15 13 26 26 24 18 22
internal_value=0.000466123 0.0208217 0.00361547 0.0398686 0.0360276 0.0359866 -0.041694 0.0356742 0.0356754
internal_weight=31.7887 21.438 11.2632 10.1748 7.07723 6.54547 10.3506 3.62943 4.02209
internal_count=208 164 85 79 70 66 44 40 44
is_linear=0
shrinkage=0.05


Tree=67
num_leaves=10
num_cat=0
split_feature=0 7 0 0 3 6 6 0 1
split_gain=10.9124 2.81031 8.00205 0.110614 0.0033691 0.000462211 0.000317941 5.36774e-05 3.10039e-05
threshold=0.87525916099548351 1.0000000180025095e-35 -0.12420840933918952 0.13980185985565188 0.12114396691322328 1.0000000180025095e-35 1.0000000180025095e-35 -0.23735576868057248 -0.68496924638748158
decision_type=2 2 2 2 2 2 2 2 2
left_child=1 2 5 6 -2 8 7 -3 -1
right_child=4 3 -4 -5 -6 -7 -8 -9 -10
leaf_value=-0.035807640970267764 0.040776519440366504 -0.035488920771559372 0.051183319694415357 -0.046869713570469956 0.042580932631418107 -0.036491191723283932 -0.036375337720815679 -0.035873756217950907 -0.035529673478870198
leaf_weight=2.1085825785994547 5.0874215215444547 1.8819527029991152 4.1860034316778201 3.6293436586856842 5.263210654258728 3.0551449432969093 2.9160430282354355 1.7474732995033262 1.9135061055421827
leaf_count=22 23 22 15 13 21 26 26 18 22
internal_value=-0.000466123 -0.0208217 -0.00361547 -0.0398686 0.041694 -0.0360276 -0.0359866 -0.0356742 -0.0356754
internal_weight=31.7887 21.438 11.2632 10.1748 10.3506 7.07723 6.54547 3.62943 4.02209
internal_count=208 164 85 79 44 70 66 40 44
is_linear=0
shrinkage=0.05


Tree=68
num_leaves=1
num_cat=0
split_feature=
split_gain=
threshold=
decision_type=
left_child=
right_child=
leaf_value=0
leaf_weight=
leaf_count=208
internal_value=
internal_weight=
internal_count=
is_linear=0
shrinkage=1


Tree=69
num_leaves=10
num_cat=0
split_feature=0 7 0 0 3 0 1 0 3
split_gain=10.0384 2.61287 7.23416 0.0877677 0.0026723 0.000240208 0.000140885 1.57383e-05 8.08963e-06
threshold=0.87525916099548351 1.0000000180025095e-35 -0.12420840933918952 0.13980185985565188 0.12114396691322328 -0.16192431747913358 -1.0213881134986875 -0.70880281925201405 0.40299956500530248
decision_type=2 2 2 2 2 2 2 2 2
left_child=1 2 6 5 -2 8 -1 -8 -3
right_child=4 3 -4 -5 -6 -7 7 -9 -10
leaf_value=0.036126283203126774 -0.040190743532033099 0.035469925160902749 -0.048361199777711777 0.045741564039060961 -0.041839481421998177 0.036190144067504475 0.035740461409582133 0.035540898074581662 0.03561788833635969
leaf_weight=2.6160738021135348 4.8230182975530607 1.6884210854768755 4.1366158425807971 3.4761402904987335 5.0112207978963852 2.4255201667547226 2.314252123236658 1.7238700687885264 2.0397465974092484
leaf_count=25 23 20 15 13 21 23 25 20 23
internal_value=0.000471122 0.0204578 0.00356207 0.0393905 -0.0410309 0.0358028 0.0358404 0.0356553 0.0355509
internal_weight=30.2549 20.4206 10.7908 9.62983 9.83424 6.15369 6.6542 4.03812 3.72817
internal_count=208 164 85 79 44 66 70 45 43
is_linear=0
shrinkage=0.05


Tree=70
num_leaves=10
num_cat=0
split_feature=0 7 0 0 3 6 6 0 1
split_gain=10.0384 2.61287 7.23416 0.0877677 0.0026723 0.000372418 0.000256668 4.3423e-05 2.50508e-05
threshold=0.87525916099548351 1.0000000180025095e-35 -0.12420840933918952 0.13980185985565188 0.12114396691322328 1.0000000180025095e-35 1.0000000180025095e-35 -0.23735576868057248 -0.68496924638748158
decision_type=2 2 2 2 2 2 2 2 2
left_child=1 2 5 6 -2 8 7 -3 -1
right_child=4 3 -4 -5 -6 -7 -8 -9 -10
leaf_value=-0.035636790477426662 0.040190743532033099 -0.035341231933345985 0.048361199777711777 -0.045741564039060961 0.041839481421998177 -0.036269308537784983 -0.036162872192497642 -0.035698308336197471 -0.035379023269148477
leaf_weight=1.9817307442426702 4.8230182975530607 1.7676884308457377 4.1366158425807971 3.4761402904987335 5.0112207978963852 2.8750021383166313 2.7434633672237396 1.6425360515713689 1.797463111579418
leaf_count=22 23 22 15 13 21 26 26 18 22
internal_value=-0.000471122 -0.0204578 -0.00356207 -0.0393905 0.0410309 -0.0358404 -0.0358028 -0.0355132 -0.0355142
internal_weight=30.2549 20.4206 10.7908 9.62983 9.83424 6.6542 6.15369 3.41022 3.77919
internal_count=208 164 85 79 44 70 66 40 44
is_linear=0
shrinkage=0.05


Tree=71
num_leaves=1
num_cat=0
split_feature=
split_gain=
threshold=
decision_type=
left_child=
right_child=
leaf_value=0
leaf_weight=
leaf_count=208
internal_value=
internal_weight=
internal_count=
is_linear=0
shrinkage=1


Tree=72
num_leaves=10
num_cat=0
split_feature=0 7 0 0 3 6 6 0 1
split_gain=9.24375 2.43262 6.5508 0.069835 0.00209567 0.000301841 0.000208309 3.50367e-05 2.01987e-05
threshold=0.87525916099548351 1.0000000180025095e-35 -0.12420840933918952 0.13980185985565188 0.12114396691322328 1.0000000180025095e-35 1.0000000180025095e-35 -0.23735576868057248 -0.68496924638748158
decision_type=2 2 2 2 2 2 2 2 2
left_child=1 2 5 6 -2 8 7 -3 -1
right_child=4 3 -4 -5 -6 -7 -8 -9 -10
leaf_value=0.03547765308924427 -0.039663566866110805 0.035203865041342874 -0.045759483678439822 0.044728042825610694 -0.041162414753730371 0.036065188994845739 0.035966976617926132 0.035534846671725788 0.035238798840428694
leaf_weight=1.8613538071513196 4.5698937177658063 1.6596238464117052 4.0822293460369128 3.3231151103973389 4.7625102698802948 2.705279067158699 2.5808446705341339 1.5429063662886617 1.687602140009403
leaf_count=22 23 22 15 13 21 26 26 18 22
internal_value=0.000475763 0.0201093 0.00350906 0.0389518 -0.0404285 0.0356673 0.0356327 0.0353633 0.0353641
internal_weight=28.7754 19.443 10.3365 9.10649 9.3324 6.25424 5.78337 3.20253 3.54896
internal_count=208 164 85 79 44 70 66 40 44
is_linear=0
shrinkage=0.05


Tree=73
num_leaves=10
num_cat=0
split_feature=0 7 0 0 6 6 1 0 1
split_gain=9.24375 2.43262 6.5508 0.069835 0.000301841 0.000208309 0.000179313 3.50367e-05 2.01987e-05
threshold=0.87525916099548351 1.0000000180025095e-35 -0.12420840933918952 0.13980185985565188 1.0000000180025095e-35 1.0000000180025095e-35 0.15607867762446406 -0.23735576868057248 -0.68496924638748158
decision_type=2 2 2 2 2 2 2 2 2
left_child=1 2 4 5 8 7 -2 -3 -1
right_child=6 3 -4 -5 -6 -7 -8 -9 -10
leaf_value=-0.03547765308924427 0.040182730239930776 -0.035203865041342874 0.045759483678439822 -0.044728042825610694 -0.036065188994845739 -0.035966976617926132 0.040623938452777869 -0.035534846671725788 -0.035238798840428694
leaf_weight=1.8613538071513196 4.1347760856151563 1.6596238464117052 4.0822293460369128 3.3231151103973389 2.705279067158699 2.5808446705341339 5.1976279020309448 1.5429063662886617 1.687602140009403
leaf_count=22 20 22 15 13 26 26 24 18 22
internal_value=-0.000475763 -0.0201093 -0.00350906 -0.0389518 -0.0356673 -0.0356327 0.0404285 -0.0353633 -0.0353641
internal_weight=28.7754 19.443 10.3365 9.10649 6.25424 5.78337 9.3324 3.20253 3.54896
internal_count=208 164 85 79 70 66 44 40 44
is_linear=0
shrinkage=0.05


Tree=74
num_leaves=1
num_cat=0
split_feature=
split_gain=
threshold=
decision_type=
left_child=
right_child=
leaf_value=0
leaf_weight=
leaf_count=208
internal_value=
internal_weight=
internal_count=
is_linear=0
shrinkage=1


Tree=75
num_leaves=8
num_cat=0
split_feature=6 2 1 2 3 2 1
split_gain=7.40522 0.673339 0.927237 0.164656 0.0264664 0.00183977 0.000172561
threshold=1.0000000180025095e-35 0.73294347524642955 1.0000000180025095e-35 -0.54697448015213002 0.93852522969245922 0.44851726293563848 -0.60086414217948902
decision_type=2 2 2 2 2 2 2
left_child=4 2 3 -2 5 6 -1
right_child=1 -3 -4 -5 -6 -7 -8
leaf_value=0.035741967778024665 -0.03010832425117594 -0.032113709626303145 0.0051293868785340559 -0.015361623926694164 0.041880295779481123 0.037361889365946997 0.035140548256113922
leaf_weight=2.0535487160086632 3.6454668715596226 5.6556331664323798 5.0949043780565262 3.9373766705393782 2.5553092882037163 1.565000459551811 2.8451061621308344
leaf_count=24 21 30 35 26 18 15 39
internal_value=0.000480102 -0.0177672 -0.0113671 -0.0224511 0.0375725 0.0358695 0.0353927
internal_weight=27.3523 18.3334 12.6777 7.58284 9.01896 6.46366 4.89865
internal_count=208 112 82 47 96 78 63
is_linear=0
shrinkage=0.05


Tree=76
num_leaves=8
num_cat=0
split_feature=0 0 1 0 6 1 1
split_gain=8.53707 2.00609 0.301271 0.00134439 0.000202607 0.000139613 4.96753e-07
threshold=0.13980185985565188 0.87525916099548351 -1.1054932475090025 -0.12420840933918952 1.0000000180025095e-35 0.15607867762446406 0.32428811490535742
decision_type=2 2 2 2 2 2 2
left_child=2 -2 -1 4 6 -3 -4
right_child=1 5 3 -5 -6 -7 -8
leaf_value=-0.01590422195602036 0.0030681125739708544 0.039658805151239415 -0.035110071969354749 -0.036726054878215474 -0.03561842681300962 0.040058695076263418 -0.035074431377434753
leaf_weight=2.4079717323184004 6.3621099591255179 3.9175359904766065 2.4497235864400855 2.2563291043043163 3.4030696526169777 4.9286208897829056 1.6269847974181173
leaf_count=23 24 20 34 22 38 24 23
internal_value=-0.000480102 0.0244813 -0.0317398 -0.0356563 -0.0353336 0.0398816 -0.0350958
internal_weight=27.3523 15.2083 12.1441 9.73611 7.47978 8.84616 4.07671
internal_count=208 68 140 117 95 44 57
is_linear=0
shrinkage=0.05


Tree=77
num_leaves=1
num_cat=0
split_feature=
split_gain=
threshold=
decision_type=
left_child=
right_child=
leaf_value=0
leaf_weight=
leaf_count=208
internal_value=
internal_weight=
internal_count=
is_linear=0
shrinkage=1


Tree=78
num_leaves=9
num_cat=0
split_feature=0 3 3 1 0 4 1 1
split_gain=8.03875 2.3882 0.308617 0.0967493 0.00119154 0.000118418 4.76074e-05 4.11276e-06
threshold=0.13980185985565188 0.57211294770240795 -1.0908351540565489 -0.1803401783108711 -0.12420840933918952 1.0000000180025095e-35 -0.43265552818775171 0.32428811490535742
decision_type=2 2 2 2 2 2 2 2
left_child=2 3 -1 -2 5 6 -4 -8
right_child=1 -3 4 -5 -6 -7 7 -9
leaf_value=0.015508237324874842 -0.044921886910404149 0.00084829123771331381 0.035658002150834534 -0.034452327689405468 0.036655398306931652 0.035002856808548269 0.035388944342593119 0.035275682618668702
leaf_weight=2.3984125554561606 4.9692310094833365 5.836378574371337 1.7744207382202137 3.969204530119895 2.1740260571241405 2.1041020303964615 1.6945598348975184 1.5208491012454031
leaf_count=26 22 25 20 21 22 31 21 20
internal_value=0.000468961 -0.024029 0.0314943 -0.0402728 0.0356313 0.0353174 0.0354501 0.0353354
internal_weight=26.4412 14.7748 11.6664 8.93844 9.26796 7.09393 4.98983 3.21541
internal_count=208 68 140 43 114 92 61 41
is_linear=0
shrinkage=0.05


Tree=79
num_leaves=8
num_cat=0
split_feature=0 3 3 1 0 6 1
split_gain=8.03875 2.3882 0.308617 0.0967493 0.00119154 0.000290708 5.14482e-06
threshold=0.13980185985565188 0.57211294770240795 -1.0908351540565489 -0.1803401783108711 -0.12420840933918952 1.0000000180025095e-35 -0.34855040907859797
decision_type=2 2 2 2 2 2 2
left_child=2 3 -1 -2 5 6 -4
right_child=1 -3 4 -5 -6 -7 -8
leaf_value=-0.015508237324874842 0.044921886910404149 -0.00084829123771331381 -0.035080866141905399 0.034452327689405468 -0.036655398306931652 -0.035649426716121181 -0.034960268612087481
leaf_weight=2.3984125554561606 4.9692310094833365 5.836378574371337 1.4808525815606111 3.969204530119895 2.1740260571241405 3.41751679033041 2.195562332868576
leaf_count=26 22 25 21 21 22 38 33
internal_value=-0.000468961 0.024029 -0.0314943 0.0402728 -0.0356313 -0.0353174 -0.0350088
internal_weight=26.4412 14.7748 11.6664 8.93844 9.26796 7.09393 3.67641
internal_count=208 68 140 43 114 92 54
is_linear=0
shrinkage=0.05


Tree=80
num_leaves=1
num_cat=0
split_feature=
split_gain=
threshold=
decision_type=
left_child=
right_child=
leaf_value=0
leaf_weight=
leaf_count=208
internal_value=
internal_weight=
internal_count=
is_linear=0
shrinkage=1


Tree=81
num_leaves=10
num_cat=0
split_feature=0 7 0 0 0 3 1 0 0
split_gain=7.59024 2.20991 5.51404 0.0527928 0.00331041 0.00192258 0.000105631 5.78042e-05 1.11845e-05
threshold=0.87525916099548351 1.0000000180025095e-35 -0.12420840933918952 0.28123596310615545 -0.058206113055348389 0.12114396691322328 -1.0213881134986875 -0.33164517581462855 -0.70880281925201405
decision_type=2 2 2 2 2 2 2 2 2
left_child=1 2 6 4 7 -2 -1 -3 -8
right_child=5 3 -4 -5 -6 -7 8 -9 -10
leaf_value=0.035595738316327022 -0.038443267687915263 0.03503057397188588 -0.042980872873406482 0.045193759707972049 0.037719607627082173 -0.039978739234602274 0.035223640089773224 0.035419740688078585 0.03503498893034513
leaf_weight=2.1616780608892459 3.9160018861293775 2.2483897320926189 3.8613664805889147 2.1520443856716156 1.9467591717839239 4.2524287402629852 1.8577850684523602 1.6576532609760763 1.3614105768501739
leaf_count=25 23 33 15 8 17 21 25 21 20
internal_value=0.000461605 0.019266 0.00260939 0.0384974 0.0360352 -0.0392426 0.0353254 0.0351957 0.0351439
internal_weight=25.4155 17.2471 9.24224 8.00485 5.8528 8.16843 5.38087 3.90604 3.2192
internal_count=208 164 85 79 71 44 70 54 45
is_linear=0
shrinkage=0.05


Tree=82
num_leaves=10
num_cat=0
split_feature=0 7 0 0 0 6 1 6 1
split_gain=7.59024 2.20991 5.51404 0.0527928 0.00331041 0.000254985 0.000235773 0.000161773 1.69472e-05
threshold=0.87525916099548351 1.0000000180025095e-35 -0.12420840933918952 0.28123596310615545 -0.058206113055348389 1.0000000180025095e-35 0.15607867762446406 1.0000000180025095e-35 -0.68496924638748158
decision_type=2 2 2 2 2 2 2 2 2
left_child=1 2 5 4 7 8 -2 -3 -1
right_child=6 3 -4 -5 -6 -7 -8 -9 -10
leaf_value=-0.035129977522469956 0.038937379897809515 -0.034862632008066829 0.042980872873406482 -0.045193759707972049 -0.037719607627082173 -0.035710683760497096 0.039479024019512178 -0.035506570299881378 -0.034891579415942647
leaf_weight=1.5859050527215024 3.5651091337203962 1.8855201825499537 3.8613664805889147 2.1520443856716156 1.9467591717839239 2.3882484436035156 4.6033214926719666 2.0205228105187416 1.4067202098667619
leaf_count=22 20 30 15 8 17 26 24 24 22
internal_value=-0.000461605 -0.019266 -0.00260939 -0.0384974 -0.0360352 -0.0353254 0.0392426 -0.0351957 -0.0350179
internal_weight=25.4155 17.2471 9.24224 8.00485 5.8528 5.38087 8.16843 3.90604 2.99263
internal_count=208 164 85 79 71 70 44 54 44
is_linear=0
shrinkage=0.05


Tree=83
num_leaves=1
num_cat=0
split_feature=
split_gain=
threshold=
decision_type=
left_child=
right_child=
leaf_value=0
leaf_weight=
leaf_count=208
internal_value=
internal_weight=
internal_count=
is_linear=0
shrinkage=1


Tree=84
num_leaves=10
num_cat=0
split_feature=0 8 0 0 3 6 6 1 0
split_gain=7.00832 2.06073 5.01094 0.0421002 0.00154089 0.000207137 0.00014205 1.37074e-05 1.35259e-05
threshold=0.87525916099548351 1.0000000180025095e-35 -0.12420840933918952 0.13980185985565188 0.12114396691322328 1.0000000180025095e-35 1.0000000180025095e-35 -0.68496924638748158 -0.23735576868057248
decision_type=2 2 2 2 2 2 2 2 2
left_child=1 3 5 6 -2 7 8 -3 -1
right_child=4 2 -4 -5 -6 -7 -8 -9 -10
leaf_value=0.034743785910194412 -0.038063326784698773 0.03500757795404482 -0.040836434668891766 0.042746357632989285 -0.039476904124792406 0.035547841744727304 0.035415527894618735 0.034786225061445748 0.034977758362562457
leaf_weight=1.2846327163279059 3.6964784711599341 1.4881686046719589 3.7954891175031626 2.9855612516403198 4.0292419493198395 2.2448560893535614 2.0984714180231094 1.3195589333772657 1.1897942423820538
leaf_count=22 23 22 15 13 21 26 26 22 18
internal_value=0.000465461 0.0189556 0.00257742 0.0381281 -0.0388006 0.0351898 0.0351129 0.0349035 0.0348563
internal_weight=24.1323 16.4065 8.84807 7.55846 7.72572 5.05258 4.5729 2.80773 2.47443
internal_count=208 164 85 79 44 70 66 44 40
is_linear=0
shrinkage=0.05


Tree=85
num_leaves=8
num_cat=0
split_feature=6 2 1 2 3 2 1
split_gain=6.23355 0.565722 0.805759 0.15453 0.0198441 0.00143065 0.000198678
threshold=1.0000000180025095e-35 0.73294347524642955 1.0000000180025095e-35 -0.54697448015213002 0.93852522969245922 0.30630415678024298 -0.60086414217948902
decision_type=2 2 2 2 2 2 2
left_child=4 2 3 -2 5 6 -1
right_child=1 -3 -4 -5 -6 -7 -8
leaf_value=-0.035507775184891864 0.029496574015774265 0.031119207883594881 -0.0053496225591187288 0.014395160074107103 -0.041120685007457365 -0.036953251313842007 -0.034805141561591556
leaf_weight=1.7876672856509683 3.3463134169578588 4.9980473220348349 4.5504822060465813 3.4308275356888753 2.295213270932436 1.4225628376007078 2.3011389188468483
leaf_count=24 21 30 35 26 18 16 38
internal_value=-0.000465461 0.017107 0.0109245 0.0218517 -0.0372143 -0.0355875 -0.0351123
internal_weight=24.1323 16.3257 11.3276 6.77714 7.80658 5.51137 4.08881
internal_count=208 112 82 47 96 78 62
is_linear=0
shrinkage=0.05


Tree=86
num_leaves=1
num_cat=0
split_feature=
split_gain=
threshold=
decision_type=
left_child=
right_child=
leaf_value=0
leaf_weight=
leaf_count=208
internal_value=
internal_weight=
internal_count=
is_linear=0
shrinkage=1


Tree=87
num_leaves=10
num_cat=0
split_feature=0 7 0 0 6 6 1 1 0
split_gain=6.594 1.95212 4.7108 0.0346171 0.00024347 0.00016712 0.00016126 1.10333e-05 1.07894e-05
threshold=0.87525916099548351 1.0000000180025095e-35 -0.12420840933918952 0.13980185985565188 1.0000000180025095e-35 1.0000000180025095e-35 0.15607867762446406 -0.68496924638748158 -0.23735576868057248
decision_type=2 2 2 2 2 2 2 2 2
left_child=1 2 4 5 7 8 -2 -1 -3
right_child=6 3 -4 -5 -6 -7 -8 -9 -10
leaf_value=0.034893348509176941 -0.038223059762736156 0.034646857193178789 -0.039628384360172457 0.042117888155066618 0.03550904303318321 0.035370342122577149 -0.03869381649391495 0.034688279463067455 0.034862813387355022
leaf_weight=1.3956006839871409 3.2216007411479941 1.2029163613915446 3.7340195029974002 2.8597936034202576 2.2062156796455383 2.0516462549567223 4.1789270788431168 1.2375393174588678 1.11396900191903
leaf_count=22 20 22 15 13 26 26 24 22 18
internal_value=0.00046047 0.0187019 0.00256524 0.0378413 0.0351216 0.0350417 -0.0384889 0.034797 0.0347507
internal_weight=23.2022 15.8017 8.57338 7.22833 4.83936 4.36853 7.40053 2.63314 2.31689
internal_count=208 164 85 79 70 66 44 44 40
is_linear=0
shrinkage=0.05


Tree=88
num_leaves=10
num_cat=0
split_feature=0 7 0 0 3 6 6 1 0
split_gain=6.594 1.95212 4.7108 0.0346171 0.00120192 0.00024347 0.00016712 1.10333e-05 1.07894e-05
threshold=0.87525916099548351 1.0000000180025095e-35 -0.12420840933918952 0.13980185985565188 0.12114396691322328 1.0000000180025095e-35 1.0000000180025095e-35 -0.68496924638748158 -0.23735576868057248
decision_type=2 2 2 2 2 2 2 2 2
left_child=1 2 5 6 -2 7 8 -1 -3
right_child=4 3 -4 -5 -6 -7 -8 -9 -10
leaf_value=-0.034893348509176941 0.037824361095577297 -0.034646857193178789 0.039628384360172457 -0.042117888155066618 0.039099887276730583 -0.03550904303318321 -0.035370342122577149 -0.034688279463067455 -0.034862813387355022
leaf_weight=1.3956006839871409 3.5449906289577475 1.2029163613915446 3.7340195029974002 2.8597936034202576 3.8555371910333633 2.2062156796455383 2.0516462549567223 1.2375393174588678 1.11396900191903
leaf_count=22 23 22 15 13 21 26 26 22 18
internal_value=-0.00046047 -0.0187019 -0.00256524 -0.0378413 0.0384889 -0.0351216 -0.0350417 -0.034797 -0.0347507
internal_weight=23.2022 15.8017 8.57338 7.22833 7.40053 4.83936 4.36853 2.63314 2.31689
internal_count=208 164 85 79 44 70 66 44 40
is_linear=0
shrinkage=0.05


Tree=89
num_leaves=1
num_cat=0
split_feature=
split_gain=
threshold=
decision_type=
left_child=
right_child=
leaf_value=0
leaf_weight=
leaf_count=208
internal_value=
internal_weight=
internal_count=
is_linear=0
shrinkage=1


Tree=90
num_leaves=10
num_cat=0
split_feature=0 7 0 0 3 0 1 0 3
split_gain=6.09519 1.82429 4.28707 0.0277645 0.000965675 7.00193e-05 6.85005e-05 8.54043e-06 4.45389e-06
threshold=0.87525916099548351 1.0000000180025095e-35 -0.12420840933918952 0.13980185985565188 0.12114396691322328 -0.16192431747913358 -1.0213881134986875 -0.70880281925201405 0.40299956500530248
decision_type=2 2 2 2 2 2 2 2 2
left_child=1 2 6 5 -2 8 -1 -8 -3
right_child=4 3 -4 -5 -6 -7 7 -9 -10
leaf_value=0.035236127825581394 -0.037496131572788936 0.034684441261272618 -0.0376697231125942 0.041443531938459788 -0.038672646482131999 0.035181464568358148 0.034915987552432616 0.034735976297147496 0.03481932309026279
leaf_weight=1.8365562371909616 3.3426647186279288 1.107329495251179 3.6685798168182391 2.7174042016267776 3.6470679193735123 1.6242005638778199 1.570877358317375 1.134957153350115 1.3683016225695608
leaf_count=25 23 20 15 13 21 23 25 20 23
internal_value=0.00046433 0.0184055 0.00253214 0.0375242 -0.03811 0.0349264 0.0350004 0.0348405 0.034759
internal_weight=22.0179 15.0282 8.21097 6.81724 6.98973 4.09983 4.54239 2.70583 2.47563
internal_count=208 164 85 79 44 66 70 45 43
is_linear=0
shrinkage=0.05


Tree=91
num_leaves=10
num_cat=0
split_feature=0 7 0 0 3 6 6 1 0
split_gain=6.09519 1.82429 4.28707 0.0277645 0.000965675 0.000197295 0.000135611 8.96023e-06 8.76996e-06
threshold=0.87525916099548351 1.0000000180025095e-35 -0.12420840933918952 0.13980185985565188 0.12114396691322328 1.0000000180025095e-35 1.0000000180025095e-35 -0.68496924638748158 -0.23735576868057248
decision_type=2 2 2 2 2 2 2 2 2
left_child=1 2 5 6 -2 7 8 -1 -3
right_child=4 3 -4 -5 -6 -7 -8 -9 -10
leaf_value=-0.034788277968619156 0.037496131572788936 -0.034558924289618063 0.0376697231125942 -0.041443531938459788 0.038672646482131999 -0.035360205886480624 -0.035231771767436346 -0.034597471065172657 -0.034759956214676251
leaf_weight=1.3094041906297209 3.3426647186279288 1.1281032897531984 3.6685798168182391 2.7174042016267776 3.6470679193735123 2.0723238214850426 1.9266230911016462 1.1606627367436884 1.045105300843715
leaf_count=22 23 22 15 13 21 26 26 22 18
internal_value=-0.00046433 -0.0184055 -0.00253214 -0.0375242 0.03811 -0.0350004 -0.0349264 -0.0346986 -0.0346556
internal_weight=22.0179 15.0282 8.21097 6.81724 6.98973 4.54239 4.09983 2.47007 2.17321
internal_count=208 164 85 79 44 70 66 44 40
is_linear=0
shrinkage=0.05


Tree=92
num_leaves=1
num_cat=0
split_feature=
split_gain=
threshold=
decision_type=
left_child=
right_child=
leaf_value=0
leaf_weight=
leaf_count=208
internal_value=
internal_weight=
internal_count=
is_linear=0
shrinkage=1


Tree=93
num_leaves=10
num_cat=0
split_feature=0 7 0 0 3 6 6 1 0
split_gain=5.63684 1.70683 3.90382 0.0223043 0.000770427 0.000160484 0.00011042 7.25996e-06 7.10966e-06
threshold=0.87525916099548351 1.0000000180025095e-35 -0.12420840933918952 0.13980185985565188 0.12114396691322328 1.0000000180025095e-35 1.0000000180025095e-35 -0.68496924638748158 -0.23735576868057248
decision_type=2 2 2 2 2 2 2 2 2
left_child=1 2 5 6 -2 7 8 -1 -3
right_child=4 3 -4 -5 -6 -7 -8 -9 -10
leaf_value=0.034690075237207248 -0.037196657180398579 0.034476874228759967 -0.035798998724084784 0.040828800532326001 -0.03827838594311378 0.035222643937000295 0.035103490798390161 0.03451270406079663 0.034663804796644021
leaf_weight=1.2279188856482512 3.151408612728118 1.0575916394591334 3.6051527857780465 2.5791213661432266 3.4458047598600388 1.9465979188680647 1.8092267848551276 1.0881541706621649 0.98000672087073315
leaf_count=22 23 22 15 13 21 26 26 22 18
internal_value=0.000468112 0.0181129 0.00249818 0.0372312 -0.0377617 0.034888 0.0348192 0.0346067 0.0345668
internal_weight=20.891 14.2938 7.86782 6.42595 6.59721 4.26267 3.84683 2.31607 2.0376
internal_count=208 164 85 79 44 70 66 44 40
is_linear=0
shrinkage=0.05


Tree=94
num_leaves=10
num_cat=0
split_feature=0 7 0 0 3 6 6 1 0
split_gain=5.63684 1.70683 3.90382 0.0223043 0.000770427 0.000160484 0.00011042 7.25996e-06 7.10966e-06
threshold=0.87525916099548351 1.0000000180025095e-35 -0.12420840933918952 0.13980185985565188 0.12114396691322328 1.0000000180025095e-35 1.0000000180025095e-35 -0.68496924638748158 -0.23735576868057248
decision_type=2 2 2 2 2 2 2 2 2
left_child=1 2 5 6 -2 7 8 -1 -3
right_child=4 3 -4 -5 -6 -7 -8 -9 -10
leaf_value=-0.034690075237207248 0.037196657180398579 -0.034476874228759967 0.035798998724084784 -0.040828800532326001 0.03827838594311378 -0.035222643937000295 -0.035103490798390161 -0.03451270406079663 -0.034663804796644021
leaf_weight=1.2279188856482512 3.151408612728118 1.0575916394591334 3.6051527857780465 2.5791213661432266 3.4458047598600388 1.9465979188680647 1.8092267848551276 1.0881541706621649 0.98000672087073315
leaf_count=22 23 22 15 13 21 26 26 22 18
internal_value=-0.000468112 -0.0181129 -0.00249818 -0.0372312 0.0377617 -0.034888 -0.0348192 -0.0346067 -0.0345668
internal_weight=20.891 14.2938 7.86782 6.42595 6.59721 4.26267 3.84683 2.31607 2.0376
internal_count=208 164 85 79 44 70 66 44 40
is_linear=0
shrinkage=0.05


Tree=95
num_leaves=1
num_cat=0
split_feature=
split_gain=
threshold=
decision_type=
left_child=
right_child=
leaf_value=0
leaf_weight=
leaf_count=208
internal_value=
internal_weight=
internal_count=
is_linear=0
shrinkage=1


Tree=96
num_leaves=8
num_cat=0
split_feature=6 2 1 2 3 4 2
split_gain=4.72133 0.417121 0.682883 0.129252 0.00781829 0.000461498 0.000438189
threshold=1.0000000180025095e-35 0.73294347524642955 1.0000000180025095e-35 -0.54697448015213002 0.93852522969245922 1.0000000180025095e-35 -0.12033516541123389
decision_type=2 2 2 2 2 2 2
left_child=4 2 3 -2 5 -1 -7
right_child=1 -3 -4 -5 -6 6 -8
leaf_value=0.034685593737830887 -0.028631841415039952 -0.029550265419662221 0.0060249618839178344 -0.013590707122011301 0.03914546721990677 0.035084574138451612 0.036410178813625876
leaf_weight=1.9048295356333262 2.9332727789878845 4.0434581413865098 3.806732501834631 2.7837737351655942 1.8498599156737325 1.3030050769448278 1.1952799782156946
leaf_count=37 21 30 35 26 18 24 17
internal_value=0.000471802 -0.0160953 -0.0103828 -0.0213079 0.0364178 0.0352718 0.0357188
internal_weight=19.8202 13.5672 9.52378 5.71705 6.25297 4.40311 2.49829
internal_count=208 112 82 47 96 78 41
is_linear=0
shrinkage=0.05


Tree=97
num_leaves=8
num_cat=0
split_feature=0 3 3 2 0 6 7
split_gain=5.23171 1.5617 0.351674 0.0824514 0.00328984 0.00011984 1.01566e-06
threshold=0.13980185985565188 0.79759743809700023 -1.0908351540565489 0.59073036909103405 -0.12420840933918952 1.0000000180025095e-35 1.0000000180025095e-35
decision_type=2 2 2 2 2 2 2
left_child=2 3 -1 -2 5 6 -4
right_child=1 -3 4 -5 -6 -7 -8
leaf_value=-0.011083231949809891 0.040209338340981116 -0.0033470383838097974 -0.034465327791502694 0.029435487558783464 -0.037225216072608099 -0.034927770702569937 -0.034401455765588465
leaf_weight=1.9289134852588175 4.2302357256412488 3.9511561840772629 1.3263711482286444 3.0606270954012871 1.7062608934938932 2.4439789913594723 1.1726681403815746
leaf_count=26 25 21 28 22 22 38 26
internal_value=-0.000471802 0.0219677 -0.0298796 0.0356866 -0.0353322 -0.0346788 -0.0344354
internal_weight=19.8202 11.242 8.57819 7.29086 6.64928 4.94302 2.49904
internal_count=208 68 140 47 114 92 54
is_linear=0
shrinkage=0.05


Tree=98
num_leaves=1
num_cat=0
split_feature=
split_gain=
threshold=
decision_type=
left_child=
right_child=
leaf_value=0
leaf_weight=
leaf_count=208
internal_value=
internal_weight=
internal_count=
is_linear=0
shrinkage=1


Tree=99
num_leaves=10
num_cat=0
split_feature=0 7 0 0 3 6 6 1 0
split_gain=4.98743 1.54945 3.43102 0.0165371 0.000626087 0.000150496 0.000101672 5.47828e-06 4.51017e-06
threshold=0.87525916099548351 1.0000000180025095e-35 -0.12420840933918952 0.13980185985565188 0.12114396691322328 1.0000000180025095e-35 1.0000000180025095e-35 -0.68496924638748158 -0.23735576868057248
decision_type=2 2 2 2 2 2 2 2 2
left_child=1 2 5 6 -2 7 8 -1 -3
right_child=4 3 -4 -5 -6 -7 -8 -9 -10
leaf_value=0.034530346536139046 -0.036749124280322357 0.034328050539450788 -0.03386312863437374 0.040072204610979711 -0.037771371326221076 0.035079454062234346 0.03494803657673299 0.034366652439689081 0.034487062032615028
leaf_weight=1.0920097343623649 2.8476709425449362 0.92786829918622971 3.4519531875848779 2.3999480754137039 3.1598758772015572 1.8066384904086592 1.6593680568039417 0.96082982793450344 0.85857547447085381
leaf_count=22 23 22 15 13 21 26 26 22 18
internal_value=0.000460857 0.0176964 0.00235384 0.0368856 -0.0372868 0.0347466 0.0346662 0.0344537 0.0344045
internal_weight=19.1647 13.1572 7.31143 5.84576 6.00755 3.85948 3.44581 2.05284 1.78644
internal_count=208 164 85 79 44 70 66 44 40
is_linear=0
shrinkage=0.05


Tree=100
num_leaves=10
num_cat=0
split_feature=0 7 0 0 3 6 6 1 0
split_gain=4.98743 1.54945 3.43102 0.0165371 0.000626087 0.000150496 0.000101672 5.47828e-06 4.51017e-06
threshold=0.87525916099548351 1.0000000180025095e-35 -0.12420840933918952 0.13980185985565188 0.12114396691322328 1.0000000180025095e-35 1.0000000180025095e-35 -0.68496924638748158 -0.23735576868057248
decision_type=2 2 2 2 2 2 2 2 2
left_child=1 2 5 6 -2 7 8 -1 -3
right_child=4 3 -4 -5 -6 -7 -8 -9 -10
leaf_value=-0.034530346536139046 0.036749124280322357 -0.034328050539450788 0.03386312863437374 -0.040072204610979711 0.037771371326221076 -0.035079454062234346 -0.03494803657673299 -0.034366652439689081 -0.034487062032615028
leaf_weight=1.0920097343623649 2.8476709425449362 0.92786829918622971 3.4519531875848779 2.3999480754137039 3.1598758772015572 1.8066384904086592 1.6593680568039417 0.96082982793450344 0.85857547447085381
leaf_count=22 23 22 15 13 21 26 26 22 18
internal_value=-0.000460857 -0.0176964 -0.00235384 -0.0368856 0.0372868 -0.0347466 -0.0346662 -0.0344537 -0.0344045
internal_weight=19.1647 13.1572 7.31143 5.84576 6.00755 3.85948 3.44581 2.05284 1.78644
internal_count=208 164 85 79 44 70 66 44 40
is_linear=0
shrinkage=0.05


Tree=101
num_leaves=1
num_cat=0
split_feature=
split_gain=
threshold=
decision_type=
left_child=
right_child=
leaf_value=0
leaf_weight=
leaf_count=208
internal_value=
internal_weight=
internal_count=
is_linear=0
shrinkage=1


Tree=102
num_leaves=10
num_cat=0
split_feature=0 7 0 0 3 6 6 1 0
split_gain=4.61735 1.45289 3.12851 0.0133247 0.000502007 0.000122233 8.26725e-05 4.45759e-06 3.67262e-06
threshold=0.87525916099548351 1.0000000180025095e-35 -0.12420840933918952 0.13980185985565188 0.12114396691322328 1.0000000180025095e-35 1.0000000180025095e-35 -0.68496924638748158 -0.23735576868057248
decision_type=2 2 2 2 2 2 2 2 2
left_child=1 2 5 6 -2 7 8 -1 -3
right_child=4 3 -4 -5 -6 -7 -8 -9 -10
leaf_value=0.034450527579316798 -0.03650805057121493 0.034262050665576145 -0.032172558066149839 0.039573826700950776 -0.037451018317983302 0.034961399655228348 0.034839415614249934 0.034298021579211836 0.034410254606737085
leaf_weight=1.0238697342574603 2.6810113266110411 0.86964293569326401 3.3931824266910562 2.2724809944629669 2.9805139750242233 1.6956371106207371 1.557026743888855 0.90060093253850948 0.80493565276265144
leaf_count=22 23 22 15 13 21 26 26 22 18
internal_value=0.000464541 0.0174115 0.00232076 0.0366401 -0.0370045 0.0346519 0.0345771 0.0343792 0.0343333
internal_weight=18.1789 12.5174 7.01329 5.50409 5.66153 3.62011 3.23161 1.92447 1.67458
internal_count=208 164 85 79 44 70 66 44 40
is_linear=0
shrinkage=0.05


Tree=103
num_leaves=10
num_cat=0
split_feature=0 7 0 0 3 6 6 0 3
split_gain=4.61735 1.45289 3.12851 0.0133247 0.000502007 0.000122233 8.26725e-05 3.67262e-06 3.04791e-06
threshold=0.87525916099548351 1.0000000180025095e-35 -0.12420840933918952 0.13980185985565188 0.12114396691322328 1.0000000180025095e-35 1.0000000180025095e-35 -0.23735576868057248 -0.75260844826698292
decision_type=2 2 2 2 2 2 2 2 2
left_child=1 2 5 6 -2 8 7 -3 -1
right_child=4 3 -4 -5 -6 -7 -8 -9 -10
leaf_value=-0.034438763009201699 0.03650805057121493 -0.034262050665576145 0.032172558066149839 -0.039573826700950776 0.037451018317983302 -0.034961399655228348 -0.034839415614249934 -0.034410254606737085 -0.034312730308087486
leaf_weight=1.0143380202353007 2.6810113266110411 0.86964293569326401 3.3931824266910562 2.2724809944629669 2.9805139750242233 1.6956371106207371 1.557026743888855 0.80493565276265144 0.91013264656066906
leaf_count=22 23 22 15 13 21 26 26 18 22
internal_value=-0.000464541 -0.0174115 -0.00232076 -0.0366401 0.0370045 -0.0346519 -0.0345771 -0.0343333 -0.0343792
internal_weight=18.1789 12.5174 7.01329 5.50409 5.66153 3.62011 3.23161 1.67458 1.92447
internal_count=208 164 85 79 44 70 66 40 44
is_linear=0
shrinkage=0.05


Tree=104
num_leaves=1
num_cat=0
split_feature=
split_gain=
threshold=
decision_type=
left_child=
right_child=
leaf_value=0
leaf_weight=
leaf_count=208
internal_value=
internal_weight=
internal_count=
is_linear=0
shrinkage=1


Tree=105
num_leaves=9
num_cat=0
split_feature=0 3 1 1 2 4 5 1
split_gain=4.31533 1.27664 0.555743 0.0721845 0.00559845 4.55583e-05 7.33148e-05 6.77944e-06
threshold=0.13980185985565188 0.79759743809700023 -1.2737034559249876 -0.34855040907859797 -1.2580400705337522 1.0000000180025095e-35 1.0000000180025095e-35 1.0000000180025095e-35
decision_type=2 2 2 2 2 2 2 2
left_child=2 3 -1 -2 -4 6 7 -6
right_child=1 -3 4 -5 5 -7 -8 -9
leaf_value=-0.0016228831890467586 -0.03980803106488201 0.0029690952249013364 0.03834421379814569 -0.029103256690460669 0.034839519293622875 0.03426078358043045 0.034283068303040738 0.034671715021207215
leaf_weight=1.2248511351644999 3.3230660632252693 3.4830624461174011 1.1673418618738658 2.993389278650282 1.2164096385240566 1.4073069132864473 1.2383855544030669 1.1914690174162386
leaf_count=14 22 21 17 25 20 36 31 22
internal_value=0.000468126 -0.0213338 0.029162 -0.034735 0.0352233 0.0345024 0.0345957 0.0347565
internal_weight=17.2453 9.79952 7.44576 6.31646 6.22091 5.05357 3.64626 2.40788
internal_count=208 68 140 47 126 109 73 42
is_linear=0
shrinkage=0.05


Tree=106
num_leaves=10
num_cat=0
split_feature=0 0 1 2 6 1 1 0 1
split_gain=4.31533 1.1113 0.555743 0.00559845 0.000118742 5.82245e-05 6.77944e-06 1.92827e-06 1.01524e-06
threshold=0.13980185985565188 0.87525916099548351 -1.2737034559249876 -1.2580400705337522 1.0000000180025095e-35 0.15607867762446406 1.0000000180025095e-35 -0.23735576868057248 1.0000000180025095e-35
decision_type=2 2 2 2 2 2 2 2 2
left_child=2 -2 -1 -4 7 -3 -6 8 -5
right_child=1 5 3 4 6 -7 -8 -9 -10
leaf_value=0.0016228831890467586 0.0029365060056394453 0.036554456158115929 -0.03834421379814569 -0.034278995755780271 -0.034839519293622896 0.036888040285801289 -0.034671715021207215 -0.034336331573099531 -0.034204881168064895
leaf_weight=1.2248511351644999 4.466867655515669 2.30061025172472 1.1673418618738658 0.95756948739290304 1.2164096385240557 3.0320398807525635 1.1914690174162386 0.7951881326735023 0.89293484762310982
leaf_count=14 24 20 17 24 20 24 22 19 24
internal_value=-0.000468126 0.0213338 -0.029162 -0.0352233 -0.0345024 0.0367441 -0.0347565 -0.0342712 -0.0342432
internal_weight=17.2453 9.79952 7.44576 6.22091 5.05357 5.33265 2.40788 2.64569 1.8505
internal_count=208 68 140 126 109 44 42 67 48
is_linear=0
shrinkage=0.05


Tree=107
num_leaves=1
num_cat=0
split_feature=
split_gain=
threshold=
decision_type=
left_child=
right_child=
leaf_value=0
leaf_weight=
leaf_count=208
internal_value=
internal_weight=
internal_count=
is_linear=0
shrinkage=1


Tree=108
num_leaves=10
num_cat=0
split_feature=0 6 0 0 0 1 1 1 1
split_gain=4.01044 1.38476 1.84779 0.00962049 0.00157772 6.18666e-05 2.84229e-05 8.13116e-06 1.48579e-07
threshold=0.87525916099548351 1.0000000180025095e-35 -0.12420840933918952 0.28123596310615545 -0.12420840933918952 0.15607867762446406 -0.26444528996944422 -0.93728378415107716 0.24018380045890811
decision_type=2 2 2 2 2 2 2 2 2
left_child=1 3 6 4 7 -2 -3 -1 -9
right_child=5 2 -4 -5 -6 -7 -8 8 -10
leaf_value=0.034343143855924456 -0.036363761567429223 0.034840930705408356 -0.020540190120754656 0.040156032693893791 0.036303630146991554 -0.036716620972621711 0.034502793795828379 0.034171521224287925 0.034142188691173497
leaf_weight=0.88560976833105165 2.1733808293938628 1.3332990668714049 3.8499072566628456 1.1369166225194929 1.3928251266479503 2.8993166536092758 1.1640636175870893 0.86006604507565476 0.86682573333382607
leaf_count=21 20 22 22 6 20 24 24 24 25
internal_value=0.000463222 0.0168116 0.00118775 0.0360968 0.0349445 -0.0365654 0.0346833 0.03422 0.0341568
internal_weight=16.5622 11.4895 6.34727 5.14224 4.00533 5.0727 2.49736 2.6125 1.72689
internal_count=208 164 68 96 90 44 46 70 49
is_linear=0
shrinkage=0.05


Tree=109
num_leaves=10
num_cat=0
split_feature=0 6 0 0 0 3 1 1 1
split_gain=4.01044 1.38476 1.84779 0.00962049 0.00157772 0.000415142 2.84229e-05 8.13116e-06 1.48579e-07
threshold=0.87525916099548351 1.0000000180025095e-35 -0.12420840933918952 0.28123596310615545 -0.12420840933918952 0.12114396691322328 -0.26444528996944422 -0.93728378415107716 0.24018380045890811
decision_type=2 2 2 2 2 2 2 2 2
left_child=1 3 6 4 7 -2 -3 -1 -9
right_child=5 2 -4 -5 -6 -7 -8 8 -10
leaf_value=-0.034343143855924456 0.036083520420323159 -0.034840930705408356 0.020540190120754656 -0.040156032693893791 -0.036303630146991554 0.036989984671592362 -0.034502793795828379 -0.034171521224287925 -0.034142188691173497
leaf_weight=0.88560976833105165 2.375812627375125 1.3332990668714049 3.8499072566628456 1.1369166225194929 1.3928251266479503 2.6968848556280136 1.1640636175870893 0.86006604507565476 0.86682573333382607
leaf_count=21 23 22 22 6 20 21 24 24 25
internal_value=-0.000463222 -0.0168116 -0.00118775 -0.0360968 -0.0349445 0.0365654 -0.0346833 -0.03422 -0.0341568
internal_weight=16.5622 11.4895 6.34727 5.14224 4.00533 5.0727 2.49736 2.6125 1.72689
internal_count=208 164 68 96 90 44 46 70 49
is_linear=0
shrinkage=0.05


Tree=110
num_leaves=1
num_cat=0
split_feature=
split_gain=
threshold=
decision_type=
left_child=
right_child=
leaf_value=0
leaf_weight=
leaf_count=208
internal_value=
internal_weight=
internal_count=
is_linear=0
shrinkage=1


Tree=111
num_leaves=10
num_cat=0
split_feature=0 8 0 0 3 1 0 0 3
split_gain=3.70806 1.34499 2.61373 0.00966746 0.000336234 3.18562e-05 3.13958e-05 3.43915e-06 1.5341e-06
threshold=0.87525916099548351 1.0000000180025095e-35 -0.12420840933918952 0.13980185985565188 0.12114396691322328 -1.1054932475090025 -0.16192431747913358 -0.70880281925201405 0.40299956500530248
decision_type=2 2 2 2 2 2 2 2 2
left_child=1 3 5 6 -2 -3 8 -7 -1
right_child=4 2 -4 -5 -6 7 -8 -9 -10
leaf_value=0.034180887375321205 -0.035891566902693427 0.034654255465181354 -0.030385336712401775 0.038908412378927962 -0.036732534166487432 0.034367016969896899 0.034582986939418747 0.034233438578131881 0.034279372636681717
leaf_weight=0.71113260835409187 2.2331938371062288 1.0339699387550347 3.2017694115638742 2.0878207162022591 2.540898822247982 1.173546016216277 1.0955779403448085 0.81753721833229143 0.89063609763979912
leaf_count=20 23 20 15 13 21 28 23 22 23
internal_value=0.00046473 0.0164205 0.00110217 0.036354 -0.0363392 0.0344291 0.0343767 0.0343122 0.0342356
internal_weight=15.7861 11.012 6.22682 4.78517 4.77409 3.02505 2.69735 1.99108 1.60177
internal_count=208 164 85 79 44 70 66 50 43
is_linear=0
shrinkage=0.05


Tree=112
num_leaves=10
num_cat=0
split_feature=0 7 0 0 3 6 6 1 0
split_gain=3.70806 1.34499 2.61373 0.00966746 0.000336234 7.19476e-05 6.00856e-05 3.6569e-06 1.91903e-06
threshold=0.87525916099548351 1.0000000180025095e-35 -0.12420840933918952 0.13980185985565188 0.12114396691322328 1.0000000180025095e-35 1.0000000180025095e-35 -0.68496924638748158 -0.23735576868057248
decision_type=2 2 2 2 2 2 2 2 2
left_child=1 2 5 6 -2 7 8 -1 -3
right_child=4 3 -4 -5 -6 -7 -8 -9 -10
leaf_value=-0.034269394486899564 0.035891566902693427 -0.034088480957947448 0.030385336712401789 -0.038908412378927962 0.036732534166487432 -0.034688021765659292 -0.034617345103595723 -0.034117919848705068 -0.034206714422885053
leaf_weight=0.86296774446964175 2.2331938371062288 0.71435726806521416 3.2017694115638724 2.0878207162022591 2.540898822247982 1.4218597561120987 1.3224593326449394 0.74022567272186279 0.66053004562854767
leaf_count=22 23 22 15 13 21 26 26 22 18
internal_value=-0.00046473 -0.0164205 -0.00110217 -0.036354 0.0363392 -0.0344291 -0.0343767 -0.0341995 -0.0341453
internal_weight=15.7861 11.012 6.22682 4.78517 4.77409 3.02505 2.69735 1.60319 1.37489
internal_count=208 164 85 79 44 70 66 44 40
is_linear=0
shrinkage=0.05


Tree=113
num_leaves=1
num_cat=0
split_feature=
split_gain=
threshold=
decision_type=
left_child=
right_child=
leaf_value=0
leaf_weight=
leaf_count=208
internal_value=
internal_weight=
internal_count=
is_linear=0
shrinkage=1


Tree=114
num_leaves=10
num_cat=0
split_feature=0 1 0 0 0 0 3 6 1
split_gain=3.43675 1.26366 2.06652 0.466573 0.00907218 0.000330634 0.000271106 3.55461e-05 1.03028e-07
threshold=0.87525916099548351 -0.85317948460578907 -0.12420840933918952 0.403812125325203 0.10208595171570779 -0.10535045713186263 0.12114396691322328 1.0000000180025095e-35 0.24018380045890811
decision_type=2 2 2 2 2 2 2 2 2
left_child=1 2 -1 4 5 7 -2 8 -3
right_child=6 3 -4 -5 -6 -7 -8 -9 -10
leaf_value=0.034467381141850856 -0.035714931565613554 0.034065227631877908 -0.042959315132776704 0.0056271717285113947 0.039180045975483101 0.03531271457563178 -0.036493528681304906 0.034396478649300219 0.034038878635636476
leaf_weight=1.5549879185855391 2.0991511791944513 0.7241702973842612 1.9331471174955357 1.7026529088616369 1.3927504718303678 0.9122930429875854 2.3920689225196838 1.5060547962784767 0.76070519909262657
leaf_count=35 23 23 9 9 11 18 21 34 25
internal_value=0.000468278 0.0161423 -0.008443 0.0283956 0.0357156 0.0344795 -0.0361296 0.0342253 0.0340517
internal_weight=14.978 10.4868 3.48814 6.99863 5.29597 3.90322 4.49122 2.99093 1.48488
internal_count=208 164 44 120 111 100 44 82 48
is_linear=0
shrinkage=0.05


Tree=115
num_leaves=10
num_cat=0
split_feature=0 1 0 0 0 0 3 6 1
split_gain=3.43675 1.26366 2.06652 0.466573 0.00907218 0.000330634 0.000271106 3.55461e-05 1.03028e-07
threshold=0.87525916099548351 -0.85317948460578907 -0.12420840933918952 0.403812125325203 0.10208595171570779 -0.10535045713186263 0.12114396691322328 1.0000000180025095e-35 0.24018380045890811
decision_type=2 2 2 2 2 2 2 2 2
left_child=1 2 -1 4 5 7 -2 8 -3
right_child=6 3 -4 -5 -6 -7 -8 -9 -10
leaf_value=-0.034467381141850856 0.035714931565613554 -0.034065227631877908 0.042959315132776704 -0.0056271717285113947 -0.039180045975483101 -0.03531271457563178 0.036493528681304906 -0.034396478649300219 -0.034038878635636476
leaf_weight=1.5549879185855391 2.0991511791944513 0.7241702973842612 1.9331471174955357 1.7026529088616369 1.3927504718303678 0.9122930429875854 2.3920689225196838 1.5060547962784767 0.76070519909262657
leaf_count=35 23 23 9 9 11 18 21 34 25
internal_value=-0.000468278 -0.0161423 0.008443 -0.0283956 -0.0357156 -0.0344795 0.0361296 -0.0342253 -0.0340517
internal_weight=14.978 10.4868 3.48814 6.99863 5.29597 3.90322 4.49122 2.99093 1.48488
internal_count=208 164 44 120 111 100 44 82 48
is_linear=0
shrinkage=0.05


Tree=116
num_leaves=1
num_cat=0
split_feature=
split_gain=
threshold=
decision_type=
left_child=
right_child=
leaf_value=0
leaf_weight=
leaf_count=208
internal_value=
internal_weight=
internal_count=
is_linear=0
shrinkage=1


Tree=117
num_leaves=10
num_cat=0
split_feature=0 6 0 0 0 3 1 1 1
split_gain=3.18285 1.2355 1.50032 0.00555681 0.00152274 0.000218833 1.53995e-05 4.36841e-06 8.03682e-08
threshold=0.87525916099548351 1.0000000180025095e-35 -0.12420840933918952 0.28123596310615545 -0.12420840933918952 0.12114396691322328 -0.26444528996944422 -0.93728378415107716 0.24018380045890811
decision_type=2 2 2 2 2 2 2 2 2
left_child=1 3 6 4 7 -2 -3 -1 -9
right_child=5 2 -4 -5 -6 -7 -8 8 -10
leaf_value=0.034154914150937209 -0.035551242056196551 0.034558623065144511 -0.019084790856781476 0.03910181133877727 0.03627284829013188 -0.036272627189736194 0.034284539738166385 0.034016239739350133 0.033992446987927936
leaf_weight=0.72841188125312273 1.9725065529346473 1.1010203249752524 3.5963069386780262 0.999216929078102 1.2104262877255672 2.25096395611763 0.95874483510851849 0.70713131874799706 0.71258430555462837
leaf_count=21 23 22 22 6 20 21 24 24 25
internal_value=0.000466644 0.0158198 0.000404009 0.0358284 0.0348546 -0.0359357 0.034431 0.0340554 0.0340043
internal_weight=14.2373 10.0138 5.65607 4.35777 3.35855 4.22347 2.05977 2.14813 1.41972
internal_count=208 164 68 96 90 44 46 70 49
is_linear=0
shrinkage=0.05


Tree=118
num_leaves=8
num_cat=0
split_feature=6 2 1 2 3 4 2
split_gain=3.14112 0.266373 0.575303 0.112305 0.00235105 0.000610456 0.000416044
threshold=1.0000000180025095e-35 0.73294347524642955 -1.0000000180025095e-35 -0.54697448015213002 0.93852522969245922 1.0000000180025095e-35 -0.12033516541123389
decision_type=2 2 2 2 2 2 2
left_child=4 2 3 -2 5 -1 -7
right_child=1 -3 -4 -5 -6 6 -8
leaf_value=-0.03419943606781841 0.02909279371472763 0.028111574473255269 -0.0074369312909362151 0.012691375183312016 -0.037573422903691575 -0.03488254862716636 -0.036408182283627133
leaf_weight=1.2325805854052296 2.3057500943541518 2.8229646943509579 2.8440000228583822 1.9068277962505815 1.3377186544239519 0.89322774112224557 0.89424374140799068
leaf_count=37 21 30 35 26 18 24 17
internal_value=-0.000466644 0.0151311 0.00993829 0.0216687 -0.0358284 -0.0350555 -0.0356458
internal_weight=14.2373 9.87954 7.05658 4.21258 4.35777 3.02005 1.78747
internal_count=208 112 82 47 96 78 41
is_linear=0
shrinkage=0.05


Tree=119
num_leaves=1
num_cat=0
split_feature=
split_gain=
threshold=
decision_type=
left_child=
right_child=
leaf_value=0
leaf_weight=
leaf_count=208
internal_value=
internal_weight=
internal_count=
is_linear=0
shrinkage=1


Tree=120
num_leaves=9
num_cat=0
split_feature=0 3 1 1 0 0 6 3
split_gain=3.00554 1.06256 0.547097 0.0256599 0.00538135 0.000261262 3.83806e-05 7.42459e-07
threshold=0.13980185985565188 0.57211294770240795 -1.2737034559249876 -0.43265552818775171 -0.058206113055348389 -0.18078227341175077 1.0000000180025095e-35 -0.55530950427055348
decision_type=2 2 2 2 2 2 2 2
left_child=2 3 -1 -2 5 6 7 -4
right_child=1 -3 4 -5 -6 -7 -8 -9
leaf_value=-0.0039136239441482784 -0.038897009880149047 0.0020004546048395166 0.034023216904742214 -0.031414924819838076 0.038980992023955018 0.035170915421645368 0.03432925528276453 0.033955423359136219
leaf_weight=1.111275468021631 2.3475995436310768 3.2876279279589653 0.67908275686204433 2.2386201322078705 0.74365828931331668 0.77557910420000542 1.5303600579500198 0.99651052244007587
leaf_count=14 18 25 23 25 13 16 37 37
internal_value=0.000461766 -0.0196935 0.0276528 -0.0352449 0.0350767 0.0343474 0.0341482 0.0339829
internal_weight=13.7103 7.87385 5.83647 4.58622 4.72519 3.98153 3.20595 1.67559
internal_count=208 68 140 43 126 113 97 60
is_linear=0
shrinkage=0.05


Tree=121
num_leaves=10
num_cat=0
split_feature=0 3 1 1 2 6 2 0 3
split_gain=3.00554 1.06256 0.547097 0.0256599 0.00552859 7.28183e-05 4.44654e-06 5.65822e-07 4.05428e-07
threshold=0.13980185985565188 0.57211294770240795 -1.2737034559249876 -0.43265552818775171 -1.2580400705337522 1.0000000180025095e-35 -0.12033516541123389 -0.23735576868057248 -0.21708276867866513
decision_type=2 2 2 2 2 2 2 2 2
left_child=2 3 -1 -2 -4 7 -7 8 -6
right_child=1 -3 4 -5 5 6 -8 -9 -10
leaf_value=0.0039136239441482784 0.038897009880149047 -0.0020004546048395166 -0.038469431694605795 0.031414924819838076 -0.034004612153947469 -0.034365901579935819 -0.034520927306229937 -0.03403868550784056 -0.03394930556801163
leaf_weight=1.111275468021631 2.3475995436310768 3.2876279279589653 0.95744256675243367 2.2386201322078705 0.71964843012392476 1.0141995921730993 0.85037509724497806 0.56938713788986239 0.61413790658116341
leaf_count=14 18 25 17 25 25 24 18 19 23
internal_value=-0.000461766 0.0196935 -0.0276528 0.0352449 -0.0350767 -0.0342145 -0.0344366 -0.033997 -0.0339791
internal_weight=13.7103 7.87385 5.83647 4.58622 4.72519 3.76775 1.86457 1.90317 1.33379
internal_count=208 68 140 43 126 109 42 67 48
is_linear=0
shrinkage=0.05


Tree=122
num_leaves=1
num_cat=0
split_feature=
split_gain=
threshold=
decision_type=
left_child=
right_child=
leaf_value=0
leaf_weight=
leaf_count=208
internal_value=
internal_weight=
internal_count=
is_linear=0
shrinkage=1


Tree=123
num_leaves=10
num_cat=0
split_feature=0 8 0 0 3 6 6 1 0
split_gain=2.88274 1.15708 2.03707 0.00624291 0.000227106 4.78668e-05 4.02851e-05 2.44585e-06 7.38587e-07
threshold=0.87525916099548351 1.0000000180025095e-35 -0.12420840933918952 0.13980185985565188 0.12114396691322328 1.0000000180025095e-35 1.0000000180025095e-35 -0.68496924638748158 -0.23735576868057248
decision_type=2 2 2 2 2 2 2 2 2
left_child=1 3 5 6 -2 7 8 -3 -1
right_child=4 2 -4 -5 -6 -7 -8 -9 -10
leaf_value=0.033907006010797526 -0.035313656188995561 0.034070347181358686 -0.027818829602603276 0.038145335305460937 -0.036081098555026558 0.034451122719111139 0.034381915858368611 0.03392996133527474 0.033990851591770149
leaf_weight=0.54848426394164584 1.7777610458433639 0.68211066722869784 2.9136111512780198 1.8354090824723241 2.1059827134013176 1.1725557260215282 1.0791581310331821 0.56912367232143879 0.50400545820593678
leaf_count=22 23 22 15 13 21 26 26 22 18
internal_value=0.00045284 0.0155557 0.000354611 0.0360078 -0.0357298 0.0342216 0.0341673 0.0340065 0.0339472
internal_weight=13.1882 9.30446 5.3374 3.96706 3.88374 2.42379 2.13165 1.25123 1.05249
internal_count=208 164 85 79 44 70 66 44 40
is_linear=0
